{"b2": [[-0.06925939546748794]], "W2": [[-0.9589819366612542, -0.9595121507680872, 1.1926505603110051]], "W1": [[0.011707308467424283, 0.014097358033820654, 0.005202977980686906, -0.01689537895400661, 0.015426774026796897, 0.006504505798235189, -0.00018455587179440813, 0.01052027589563097, 0.007674789718476181, -0.007918567724973664, -0.0002861826808415581, 0.013580902007567402, 0.0028796839296232066, 0.025988483813958015, 0.003297102307500656, -0.007039558387967236, 0.005873356350546848, -0.007676676017260425, 0.007871968761832928, -0.00046137614733248437, -0.004561663634143203, -0.0064638597531734565, 0.02227144369512941, 0.006654449473948616, -0.014594409535519602, -0.00013003444229763432, 0.0096060494952868, -0.0022572938069683646, 0.003589216783826022, 0.0017774039715178088, 0.00512490467661927, 0.03041941095620854, -0.008342688434772844, -0.007533970637918944, 0.00273390729264978, -0.017473864678080642, -0.010566458867507292, 0.0030384043928779613, 0.02024385142173297, 0.0017670350287151203, 0.0003675129995822175, 0.01894408403050988, 0.0017657340644168461, -0.0019017841311180213, 0.0034914138058109775, -0.00015420788316263036, 0.005608158497944577, 0.006409317782801246, -0.01744668751909533, 0.012609553117697566, 0.013492651914091887, 0.012746972717870076, 0.02602062034885641, 0.016093451403465433, 0.019807669828350256, 0.0009850391452687604, 0.014458894788028398, -0.014378921488944495, 0.0038205155860520034, -0.013853784439555374, 0.01045014950008872, 0.020482860004445498, -0.0006865555516439937, 0.01243055883370582, -0.0038948612716212068, -0.003267723195522742, -0.00645934452726486, -0.009878291056660935, -0.0007768831305764913, 0.010892982054503916, -0.008676986594745676, 0.004275486398198262, -0.00994813915935563, 0.02100945925391708, -0.0011703393382076406, 0.01038221594067946, 0.01914157971388224, 0.00501777894095425, -0.007338945591599473, 0.02825842039328197, -0.009766133521390037, 0.00885044702686171, 0.020146516459828387, -0.0037885089649258193, 0.005793368309016344, 0.024318298792610684, 0.002661599352755275, -0.0031870117784224485, -0.01686209375437104, -0.005731184774966081, 0.0016529254521221997, 0.0115248320750402, 0.0009759808869185695, 0.014436807130839682, 0.01077409666399065, 0.008757507301337963, 0.017790025466697976, 0.005312609075627976, 0.003685743880299025, 0.03206388038330403, 0.021905246190310774, -0.008760769559784819, 0.00737159630460359, 0.01806809666447635, 0.016688117396056724, 0.010602811520734065, 0.007573038951487766, -0.002005982188977045, 0.02173123457226293, 0.01895277505296455, 0.0020813303789198848, 0.016693424512734627, 0.013771608290638145, 0.01549795931400513, 0.0022654427285776816, 0.01493686753616424, 0.009852310821534926, 0.007604321658871961, -0.0020474408191431827, 0.010634723304675164, -0.0009734990001614566, 0.01158412229444552, -0.011920574022914866, -0.017318011431993782, 0.005191289980474704, -0.004489770374919785, -0.0039019351200224447, 0.004041078122247436, -0.017132440825749, -0.01173333877699923, -0.00065654044792869, 0.005740540288372697, 0.0023185274169187464, -0.00586014534520252, -0.006903562363682983, -0.01262626648152437, -0.006254252244208974, -0.0008102161363272138, -0.014000659836527372, -0.02011202550106042, -0.017254276868493797, -0.006152525782417087, -0.0001773986255795161, 0.004971319673876677, -0.012257677392259496, 0.009890487826358195, -0.0017261128013588045, -0.005967564725152217, 0.01152287276942264, -0.00029848941117461793, -0.012812271938407605, 0.014144959155248393, -0.014904718518558357, 0.0017445873295672339, 0.009110462307708971, 0.009849991077343854, -0.008933663907232024, 0.005511765787445162, 0.0029388831179624503, 0.005560693727706812, -0.0036326202761838874, 0.002953015484350732, -0.014611471010679423, -0.017796452115073132, 0.020359766551206554, -0.013620057616490298, -0.02066467695087739, 0.0072750750927590814, -0.01725681504539954, 0.0041280604035143905, 0.00875053372077717, -0.013696930051457707, -0.0036248108173854306, -0.006697231227092277, -0.011104811786184441, -0.016432685881454117, -0.016498280023481787, -0.011437574035421226, 0.00898755605418234, -0.0003031563492794041, 0.0034284038627221524, 0.0008449997201149269, -0.018127695313070735, -0.018132077472933165, -0.02859220218510186, -0.027656752479173492, -0.02519880721014234, -0.00443839722555998, -0.008016030020431391, -0.014305779215104213, -0.00793671617752706, -0.02403584550853547, -0.0063988073388651055, 0.01240878946399507, 0.006774807254741261, -0.009660484341831095, 0.03307453111797239, 0.016343492552473776, -0.005873376542909709, 0.004195533378375752, -0.003020115166784593, -0.0058327814082014115, 0.00632855549953289, 0.0025052077322636657, -0.0004828429305224338, 0.018372860209106362, 0.010569549241888226, -0.005704976865795988, 0.011774194403056586, -0.0009808738371659413, -0.010400913272112521, 0.026571971326481394, -0.0017395582342831803, 0.009811776684861459, -0.00236133330423866, 0.00024749610569326636, 0.001924738154015009, 0.002422383539248366, 0.0019734914342594626, -0.005182477706870625, 0.005538196072216351, 0.0005547020696772383, -0.00890873497486151, 0.02615890585618788, -0.0009111100387226495, 0.013664909538442, -0.016964030571993794, 0.0020998950414436355, 0.001335849396342288, 0.006632603311747265, 0.015595973563352968, 0.001337236055951203, 0.005289514397813509, 0.005420182182459306, 0.028919554704639066, 0.012836128739592074, 0.005347217972049837, -0.0020802737790424648, 0.01275397454419639, -0.00942585746792689, -0.0014003435456484816, 0.03452107658525329, 0.009499025997597318, 0.006123158063398878, 0.021252775156975687, 0.0203341928600985, 0.0073067969728526855, 0.030419026363632713, 0.01369746876911401, 0.0005272999156120689, 0.02161657003421821, -0.024434555902538655, -0.009196157904174947, 0.006986005893522774, -0.01138969264560319, -0.006499257771137106, -0.0026528604671673794, -0.010617192257650938, 0.017171222103843867, 0.0049663760646335995, -0.0073785865119451784, -0.0003263745429471913, -0.006163144358180389, -0.001875579973162175, -0.007144094988953284, 0.013931253318302902, -0.026873864153566747, 0.004416784205792165, 0.0058821390781406465, -0.019510265573704923, 0.010944995702322501, -0.0005670816377489593, 0.01147229701007745, 0.007003139227807951, 0.01736176486941978, 0.0007142088723178246, 0.01011874595890324, -0.009381325909401786, 0.001516543554841053, -0.0020370392607263316, 0.01231576032324532, 0.0031658222207054288, 0.009344416827871805, 0.0020923692094218286, 0.02539549265468544, 0.026478735964756573, 0.0043261451363672135, 0.0029477904419499255, 0.004889170911124095, 0.0163294394848764, 0.019463145946729616, -0.008405729880057184, 0.0012280880101294858, -0.009311638345520035, -0.007593629000979648, -0.007724931298235819, 0.005422339498657498, -0.008428738373556168, 0.021133896768489115, 0.009205542261935868, -0.0020460222568455064, -0.002076954976200854, -0.0054890058541679065, 0.02443431508308893, 0.0020572513405987783, -0.012269270420560289, 0.0026415243144002373, 0.006263100805651872, -0.01045693473805954, 0.017983533560418655, 0.005113076194979536, -0.0004594137883309389, -0.004981197519884988, 0.0031806952727201064, -0.0070441466758964216, -0.022013947645127853, 0.004730638868326367, -0.024372051183497324, 0.0004007515723532493, -0.010271964365962024, 0.013953651011489272, 0.002818855207436213, 0.013302695481647671, 1.0969166036838834e-05, -0.020281167497840577, -0.023455395269945584, -0.01574513811981754, 0.0003777432648630803, -0.0012890192642482628, -0.0017405053715527582, 0.0012537941802351507, -0.019406107873737696, -0.006236086712868047, 0.013459000381803173, -0.006186230863317094, -0.026490406434610255, -0.005513029186629916, -0.0008468436672554374, 0.0002646095181899338, -0.011554670056732021, 0.004963183273375468, -0.025361979013678263, 0.006330146378262622, 0.020273251011113658, 0.012065113361898977, -0.011131218366386635, 0.014515736831591899, -0.021518467458965688, 0.0020611627422756477, 0.004967836365409597, -0.004219861783042104, -0.0052800820043576386, -0.0012634635755153442, 0.006051651612728937, -0.010105255144416486, -0.0023906207289801323, -0.026657023258950637, -0.023333858186566823, -0.00840544351246382, -0.0017339100713122941, -0.007295214188645342, 0.016052816405160326, -0.008065496965947088, -0.009609901053072549, 0.003230503640385421, -0.0019521435895435565, -0.008907883117030497, -0.0087763941345014, 0.008481389036650425, -0.015328555970538945, 0.009528241752893641, -0.006266124566547153, 0.003190519960768495, -0.016242912591251928, -0.004246867769618104, -0.01991987934125541, -0.003713149734444191, -0.00464607698325628, -0.02631438585019652, -0.02009293380068905, -0.025917267111462538, -0.006493867369083186, -0.021330026839354747, -0.010300677041254041, -0.01990608325626429, -0.003226263389812352, -0.0014252340800460616, 9.079881417673133e-05, 0.0026340114004677635, -0.0009226884563435598, -0.008527033576693422, 0.002281006126032154, -0.026898615177266116, -0.01659435956620716, 0.0006268092287491768, 0.0034510263391994127, 0.006844816080314805, 0.005088236847954972, -0.006894948374561349, -0.020652342502533057, 0.0015109760779195465, 0.0009181976491953726, 0.0025766504072339065, -0.008616699104853643, -0.003050439399367985, -0.0037959117119887374, 0.015666269681296526, -0.003962348207382961, -0.017447532599935856, -0.009713474472092937, -0.011000798388865954, -0.01592757137752718, 0.010195219906415767, 0.006111422082804039, 0.0012928634213861308, 0.01732523385789858, -0.005430354487990509, 0.0015311976689900528, 0.005138394964639143, 0.002035861224397595, 0.011504144206703981, 0.009908724368557156, -0.014919619716551417, -0.007273307950799704, -1.1130386473881689e-05, -0.015903045244883045, -0.011286801008623443, 0.01556915951977422, 0.016312351706419165, -0.006573703992167075, 0.016660327627751933, 0.014414844164262594, -0.01464922362419749, 0.005687888768043772, -0.0012487562675662879, -0.0028498599070650088, -0.011375788487385583, -0.004432252806629366, 0.003432310110426107, 0.0146415721356533, 0.016261535904819907, -0.010025115866849968, 0.017704714927802116, 0.0003455497586445189, -0.019101547241601433, 0.010670635362829778, -0.006288490009441359, -0.0020230501770309318, 0.001018083120769973, 0.008742735299135898, -0.007507923894960842, -0.005259904190653808, 0.0025701575424566347, -0.012090308460974801, -0.011462489337705542, -0.00016431357144112757, -0.018694987569424996, -0.014502478120282826, -0.02348769751958706, -0.0209930897232212, -0.0051690363173476, 0.005893971862042239, -0.012388613197948815, 0.0037464481442556715, -0.019811581891838237, -0.005540596879734088, 0.022735631099419375, 0.007789122939083974, -0.00437858134819813, 0.009388609461752422, -0.007054947557750211, -0.005093823245807173, -0.0025050507754926653, -0.007242780271741302, 0.00402707907399816, 0.012658278034868365, 0.007566876751538043, -0.002593758396773874, -0.01136701008336839, -0.00026832274951977885, -0.0111071316037517, 0.008778029159728999, 0.005091733666200639, 0.010703275708651896, 0.00370806968505836, -0.013051300286737282, 0.015532717830078166, 0.02282408702484766, -0.007777085605379181, 0.003721670885183068, 0.017113151179728357, -0.011472994015776434, 0.020522878377756883, -0.00014641989446825037, -0.013870246484480814, 0.014778779086745289, 0.004455971444726093, -0.010908808895809073, 0.0052313447825674195, -0.023926224918789058, 0.007888632419953951, -0.008776461620459797, 0.0016864051890249144, -0.012297554138870972, 0.002418985630669512, 0.007583680252040214, -0.017511321984356197, 0.0046829526680288724, -0.0054970154641389435, -0.01474832263047119, -0.0011081752086418172, -0.00709476510960169, -0.011837367883119947, 0.007141154747926013, 0.0018591881894432691, 0.004824360996492219, -0.004384825203961259, -0.010737230987579713, -0.029128591076139757, -0.018962214716783665, -0.0021680216531409996, -0.01044314725034291, -0.020622433575266635, 0.002516516765563215, -0.027883294928580427, -0.01974004315233801, 5.973846983983635e-05, 0.016087339812905638, 0.0021262939150518303, -0.005106787636454966, 0.0035572927455076375, 0.004362259838204169, 0.013812569129326316, -0.005672006852136264, -0.009316669404328608, 0.006505464104663063, 0.005069824219216764, 0.015940357211395677, 0.028732637940416215, -0.0009425916723235366, -0.008346554774188107, 0.002623406521598873, 0.0025731406978185133, -0.0076702086896322744, -0.00278669967175782, -0.0025899737949752625, 0.0007035930316567113, -0.006988218042893206, -0.01668713012980732, -0.025320323294673677, -0.010795144837534278, -0.012214263054417404, -0.027755491414475864, 0.006246354139354259, 0.0017443305084022364, -0.012791860256713836, -0.008763560469828319, -0.014807268647278035, -0.021287558334938984, 0.01654220983237219, -0.02542081509211567, -0.010938756706637909, 0.0038579975339059214, -0.006146001272592584, -0.01604458892888462, 0.004436968775619499, -0.02319635484888042, -0.008392114706902917, 0.009319686278390464, -0.025582335610267636, -0.02128073792422884, -0.0034916828481333156, -0.0032288244701204356, 0.0019559490307527803, 0.002210795903866369, -0.01927077752358459, -0.02433017648904884, 0.006154861254313733, 0.0015927042224462853, -0.012863743146396505, 0.012148693458074795, 0.010354513381928835, 0.007027088139326784, 0.0007610377022600549, 0.012958609082251424, -0.02041307331278939, -0.0005969090202680581, -0.0027031659618093123, 0.004769681447401345, 0.03576149079272287, -0.0004890105698954336, -0.007105773425114556, 0.010914001474994557, -0.018687879817561287, -0.003850855922649659, -0.0135956451863964, 0.010230774246791977, 0.0012254115172849606, -1.0580176096584055e-05, -0.015818974538845156, 0.0004027572403617698, -0.004823586560737645, -0.009497708122358093, -0.005235869026465171, -0.017833902090831192, -0.0022844849693762367, 0.004012231633480762, 0.009040055503217353, 0.00010508937084504872, -0.007307432330793097, 0.02019184658323396, 0.008504011427345156, 0.0026129023067259106, 0.006784527559796802, 0.01394583358511539, 0.012634849885549481, 0.015780672067525713, 0.012324170486268087, 0.009777279120725194, 0.02446776380591127, 0.002951908373570485, -0.00764302853691011, 0.00047057159935941413, 0.0009504963559409748, 0.00020610742015956255, 0.014385121480844195, -0.002773048987167165, -0.005679302238678893, -0.007631103707905173, 0.0117358188439587, -0.016095192040616855, 0.003031109894098682, -0.011047756378683882, -0.010636582799398216, -0.00642796559937885, 0.012616893830048723, 0.00042956072476420194, 0.00406817879087556, -0.00964919793260819, -0.013412193992319223, 0.008004441695886313, 0.012745031908401823, -0.023266612492385225, -0.010543032734094841, -0.009842463622923618, -0.019736537619160027, -0.024308172325343082, -0.013971632572678801, -0.010731262014009913, -0.029396966463738156, -0.020493629833549548, 0.0001047466310865435, 0.004883193137288886, -0.02004768079646392, 0.016333155342206297, 0.002978762770339007, -0.018994347486510157, 0.009540796798244698, -0.00838757456223598, 0.0063539492148181505, -0.009494929722584526, 0.015226504014015103, -0.005261188998737062, 0.012897313862596897, 0.012366627503826487, 0.003855325328126354, 0.002457629338569549, 0.018194740785637993, -0.014683570717068677, 0.0034093506184181043, 0.008935611052544212, 0.008472639929663298, 0.007258849179863955, 0.03993209528046617, 0.004694236456762612, 0.013073577462547668, 0.01156844675555041, 0.023261639999958447, -0.009952817964104516, 0.032222932580030214, 0.0017811002846741771, -0.016952249112734075, -0.002169531169631986, -0.0008437501575407689, 0.007399050110552009, 0.0030496658029256093, 0.005374763327201353, 0.00309235313010624, 0.0009926708925586851, -0.02651222468779556, 0.004612344522120549, 0.008182037296165292, -0.013106264604393092, -0.017404352558633193, -0.012147724066519995, 0.009930614877500302, -0.00859486165881968, -0.007057054248343628, -0.01622090887833433, 0.00415586573121084, -0.0077197002018001525, -0.015031204471174994, -0.01477610273096646, 0.0024202719548766186, 0.008175137960642745, -0.0003077364696447764, 0.017190453656905462, 0.0023115873014708296, -0.0009018253569259638, 0.007784983814069851, -0.002360867518790095, 0.00560518254623018, 0.005526463341999246, -0.011523204802095087, -0.0046447515490332875, -0.001024338557584707, -0.0007757009980332452, -0.002653977533514375, 0.006599415410787735, -0.018284515396869896, 0.0030915820743739044, 0.020542063438600502, -0.012784992980594503, 0.01848688825141492, 0.01241916370380765, 0.0011499446583183555, -0.014232878553995777, 0.022128896596486897, -0.0034868140098595116, 0.0003246828989045051, 0.01942035284364062, 0.0020628370666582545, -0.007620875344194261, -0.002733461661959399, 0.0072099598887631145, -0.0004587575129316244, 0.0035844958091660567, 0.0043178289392656385, -0.01324263131966246, -0.0016009754411931646, -0.009813896990133238, 0.010794949801368846, 0.0017939961487146005, -0.019268540385359533, -0.019355738414844684, 0.016801886926741453, -0.00949561852098243, -0.009923840958617256, 0.007126094056872673, -0.004878005496186735, 0.0032127246348592434, 0.01878589995261877, -0.0059919776401174745, 0.0018257304048498594, -0.010621065698508276, -0.012946950303169173, -0.011010838859569156, -0.0022876186429399473, -0.017831945699415964, -0.003419641281101356, -0.01859441626199748, -0.022511945304997828, -0.021815142064183606, 0.0036703790011569275, -0.003134564973283749, -0.00271503747248815, -0.016551439946241486, -0.010838292709004521, -0.005589640157554401, -0.009707513519282526, -0.008838272121407462, 0.005492656186572547, 0.020729189739015438, 0.008724451437752061, 0.004405436689025671, 0.016570702223345016, 0.009865016943635207, -0.0071601755412886185, -0.0010257256954065935, -0.0006841943341274767, -0.010488844127713243, 0.031676426836380236, 0.004609254687438566, -0.008074414796238402, 0.00357847490017765, -0.000919724276644855, -0.01179230081695476, 0.007884434057050593, -0.0029374723972942886, -0.0032384748854750863, -0.009519075100677345, -0.00475547715992431, -0.009214644086422216, -0.01962977731734918, -0.011895255882466975, -0.009922921080562473, -0.00679929917796176, -0.012868864388683324, -0.023249231171428, 0.016478716738662053, -0.010121637552743746, -0.008782367572945041, 0.02035624231978351, -0.011730576366551289, 0.015143184542409536, 0.019997689905637592, 0.014986087178679651, 0.0002108265319388908, 5.7499766528703934e-05, -0.012767561882727197, 0.014306263221471325, 0.0050074710718789345, -0.0013134930481404428, 0.014469218749330612, 0.0027978127940679453, 0.003632069650076364, -0.008739964469670045, 0.00268463160397139, -0.008831720938387211, -0.017024745183393093, 0.011386910379459521, 0.0021747128361031326, -0.04611365865598688, -0.023751755940474923, -0.004324833318996494, -0.012159395977897974, -0.005578557488753982, 0.00367972632681656, -0.02192007943325775, 0.016162534427371745, 0.00034529167059772986, -0.0012815354936297823, 0.00491968863818395, 0.004632562227238327, -0.012885916039200007, -0.009187166803950599, -0.004588709867152209, -0.01333209291524193, -0.022949345892681355, -0.004599427314108452, -0.0036019554997178136, 0.002442157069953489, -0.019433619393723855, -0.006434827709869217, -0.009538217349020463, -0.02284654529367903, -0.00651578756802183, -0.0024032782651300564, -0.015891513971342242, 0.01713843322785542, -0.01613582688266179, -0.011528357631263418, -0.004480198934256428, 0.018167311246923366, 0.0006997102310146885, -0.00524140719218426, -0.006362174937484446, -0.007552344742417944, -0.011415595099935016, 0.01764248886029174, 0.010822208448707965, 0.010880348610130642, -0.0005127018742302964, 0.0316030781526547, -0.008378705596664551, -0.016326619323997295, 0.004240301000113861, 0.005994096767990677, 0.015950139777393936, -0.0027000675679405063, 0.012004870877181885, 0.02855988413280441, -0.003312796209633708, -0.0037583655103348023, -0.011099135688210351, 0.0027913945356154188, 0.014846096537793825, 0.011139620186920222, 0.005149892260402991, 0.018383355412010288, 0.002907857808075699, 0.002994670443837089, -0.010242342086930716, -0.010810748786682926, -0.0072958116526407055, -0.010445548961872062, 0.0046258659170371015, 0.005053068136404999, 0.00022309737712918032, -0.008565630295352194, -0.015573037170041897, 0.012339613575914132, -0.007822334255027652, -0.004735306766953598, 0.00040301437323849435, 0.007134682241682806, 0.012852510417602766, -0.0005177832816532856, -0.0015560762138266385, 0.01965157683439423, 0.004431688176792003, 0.01780492894429551, 0.0024350008254010063, 0.0073848655154068465, 0.0167980176199775, 0.011007447826289277, -0.005600272102247591, -0.0009335374512803359, 0.001341888656482612, -0.0009327432100725538, 0.01109040001879363, -0.008326193594682244, -0.022022013022248727, 0.015761145653364034, 0.011200581463369146, 0.009331534159995322, 0.028376117459662144, 0.014101407440916232, -0.0010020932470244243, 0.02183580840683684, 0.006052452979207583, 0.014661745278353051, 0.013884606434846907, 0.010513322516981276, 0.006991796071444621, 0.010993424465569593, -0.009248050407937091, 0.00036708884266671853, -0.017809540604765917, 0.008010176153540834, 0.0037790963208530204, 0.020715760657912672, 0.004428913618130603, -0.015533436938584545, -0.01580218789846596, 0.02162844658881485, -0.021443071275531096, 0.011205051298184453, -0.016635924212072595, -0.010320310084189866, 0.007561858078809051, 0.00566982449402932, -0.010161840442517186, -0.008104412155363545, -0.007756709065363491, -0.00015882990698035034, 0.003172001915720063, -0.0044014980984053995, -0.011997340832080032, -0.014574460443705237, -0.0016458353078464244, -0.0018610452919716643, -0.01587125876160524, -0.016020589920025762, -0.0015705418071329707, -0.011553212510899911, 0.008243994009934644, 0.005421339773407428, -0.0057250725942071855, -0.0012734136311003785, 0.007807041608726738, -0.005713315445964308, 0.007739883849936651, -0.006726276537092375, 0.007791379831709008, 0.012681268129291297, -0.008475160013311485, -0.002330591762754375, -0.007084056925322014, -0.007572088666364341, 0.015255866822696453, 0.0020366057770164403, -0.008936703797165312, 0.007668334460680748, 0.015534935481624039, -0.0014406234686102643, -0.00026646025575152526, -0.0020679840505716082, 0.006012404080227226, -0.0005184651418241293, -0.005422306648280394, -0.008198689997533643, -0.010021722217711115, 0.003166760276814577, -0.03150540757449744, 0.013430200014899146, -0.013677934506485879, -0.017625689121554874, 0.007638457012864529, -0.01885236869601259, 0.0013857319694742134, 0.014274875053446863, -0.005402716816955154, -0.0032629555787134783, 0.020285266130294643, -0.0027043025218041208, 0.002275311218352331, 0.017173626902334923, 0.02341603111655615, -0.0023043445292220566, 0.013069653218005543, 0.021230730209870066, -0.022991732435625634, 0.008386658000240445, -0.011110407564941763, -0.017586175876621223, 0.029452263049701333, 0.006928879623145671, 0.010318453107149817, 0.0033879119123723603, 0.00639381634789791, -0.01552733246625061, -0.005998482627524201, -0.007090986209689332, -0.01502868120520612, 0.010971108730430553, -0.011282520677121375, -0.010678170130242456, -0.006951154665983346, -0.005319920381819082, -0.020464047521215625, 0.011343031366437023, -0.007239295085665497, -0.008583736218276359, -0.0017394752577659035, 0.004960488970662837, -0.007184066703615776, -0.005790406920832167, -0.013593150166271651, -0.01272584991206967, -0.004291685002603393, -0.013541924769434461, -0.0005033751347497752, 0.007005749503391823, -0.00814533173198169, -0.020286252936752923, 0.01409294179390012, 0.012587692639153124, -0.007949577773892137, -0.005734540319324119, -0.027881424766462014, 0.006721516145027221, -0.009640281500748697, 0.014293485261924433, -0.029109136081056294, 0.0002424371613281109, 0.004493316296199534, -0.006710165432686001, -0.006625696276648766, 0.0032510880734395457, -0.0032684793998811208, 0.005027816338110106, 0.006742178653543008, -0.005252721427888123, 0.004479997708601242, 0.015989576136341256, -0.0057486294706896, 0.002512589512096387, -0.0036091271930705185, 0.009767378341931018, -0.009018419731879992, 0.01193550516261782, -0.026318276195455848, -0.001272573061641936, -0.012876146789684626, 0.011299303565558022, 0.00303392781694653, -0.016972043918229842, -0.004713007526693027, 0.010291660102255755, -0.010134764511654723, 0.007328941900837879, -0.017544711183579545, -0.026496455374083343, 0.003077564923758699, 0.017524284325437883, -0.019515300267043494, 0.002019656295067111, -0.012445554960941688, 0.0010738586777531858, -0.005201235838103385, -0.004594906970502291, -0.02729990573435696, -0.002710353367157213, 0.004148647938380469, 0.009679656790484983, -0.00882929338970533, 0.016057140031517366, -0.0027608768902092646, 0.0019529391250354296, 0.0023835924174304256, -0.010845221349885642, -0.01008643667020874, 0.0261031551056733, -0.0076218788795784, -0.005183034018729202, 0.01560294648228816, -0.02270781506757995, 0.002319267732997299, -0.0022400509704367873, 0.0011903754122558597, 0.00916043033922641, 0.006735780482853206, 0.0007875952103505385, 0.011366432085811121, 0.01963716010768261, -0.0030051591847765724, 0.0009666889593660369, -0.002253825417945016, 0.014844958535825865, -0.011191463592098176, 0.010937917202888059, 0.01861497024974105, 0.00875857968251421, 0.0037587702173272806, -0.008778163812578933, -0.004022905766720333, 0.015356368679713699, 0.0027352521625252637, 0.0010795072389365877, 0.03043662700152284, -0.007019749012995763, -0.009472737488270053, -0.0031779629781162975, 0.0006899079465076066, -0.0061034762034148276, -0.003149047443510966, 0.0068468539695757166, -0.0024162832892239525, -0.0008185148754580319, -0.02110411586725481, -0.004188727723660437, -0.010642519080450616, -0.0069787219292402145, -0.014166921046287136, -0.01589672273916369, -0.012258157562336197, -0.013027765572220648, -0.00799176355094499, -0.005886731323383157, -0.02173285424070077, -0.00861219915125848, -0.024571091123326897, -0.01592464886595135, -0.005476008933072256, -0.02027751869254547, -0.024055413560560988, -0.00578624161653338, -0.011579263147318105, 0.001262512436909242, -0.004445115730401502, -0.016606124185464977, -0.024624836254587768, 0.021443968199366403, -0.012921913153451472, -0.020052514230069984, 0.0033839411040176084, -0.017197471077683196, 0.0019147994432770895, 0.008054102955634891, 0.005665001140514849, -0.019715120724492625, -0.0008155218435486151, 0.006037474804639344, 0.0006251049563096476, 0.03395837197980302, 0.008677730646980604, -0.0264622347751855, 0.0061490796961759814, -0.00653340487586658, -3.529409612655938e-05, -0.0003649847409262472, -0.0013450479005385405, -0.016482324275218896, 0.0018975609443941713, 0.005039742126600609, -0.01843154331191785, -0.02531769012207903, -0.02240079800360053, 0.005801661736954672, 0.002374634877992435, -0.008392731258160332, -0.01884867476473944, 0.011812284919191252, -0.0020843639703396494, -0.00375373578100463, 0.0014027665211038566, -0.0014601573203313922, -0.006240404100190516, 0.012710637018604448, 0.014605820964894245, -0.020402664879248304, -0.005698644622594278, 0.00492702328478448, 0.0012529472881268398, -0.005915755388553833, -0.00024626823256844346, -0.006495820263462501, 0.003539153716156688, -0.0009565623631639134, -0.005586407213542023, 0.015322411221702423, 0.009030505375178311, -0.004510995368475966, 0.004389331189263467, -0.010588253032159297, -0.018061437052775832, 0.005706799622984997, -0.003696799173035384, -0.00798719502410381, -0.0001944408668431693, -0.0026961724094285724, -0.0078658088587192, -0.01639610108713268, -0.0022666302960947468, -0.01738859679886889, 0.007537571088744761, -0.011793054048992878, -0.008610129362968002, -0.00919377188034242, -0.006142191549282356, -0.004463092618553405, -0.011455729516213497, -0.01063555082062569, -0.008555052672300398, 0.00024189349061974472, -0.01294972568178663, -0.005549694197862799, -0.007674865003590666, -0.017681356911784237, -0.002580040007335219, 0.0017242857057501516, -0.016511078431409736, 0.012387543519206968, -0.008517360741642107, 0.001939541440542622, -0.0016439515687367526, -0.018099004043540184, -0.0019766093405954544, -0.01691024528478313, 0.0021620390813516053, 0.012183562912847954, 0.018353527467146295, 0.015091293469866358, -0.005680897749354136, -0.008478735838478798, 0.017168167355315844, 0.006169420183828095, 0.008182044269998804, -0.011347645921165621, -0.008511833250170865, -0.019585657176555353, -0.004137574327868125, 0.009624328426557615, -0.012550351023480805, 0.010261445421797024, 0.001371876702168655, 0.005586652686645517, -0.006422428773573269, -0.009056979331578313, 0.018884711733104367, -0.019990356657225566, -0.004101486683747027, 0.011713488350155345, -0.003098751317883479, 0.003689361856408486, -0.039589128300207, -0.016023544472261446, -0.030062569411370494, -0.011486104178984243, -0.008647629456809724, -0.010422319252265588, -0.014291899186539744, 0.0024446552547092455, -0.03023380403769551, 0.0064054191572003785, -0.006548954261609072, -0.029448296761612515, -0.018781278177109305, -0.01669801379091614, -0.016551905121359827, -0.0005817189630268407, 0.017554074453307197, 0.006358414213598856, -0.018550335614473685, -0.02148543348918589, -0.007067019445224177, -0.020225785447066595, -0.00204923732268933, -0.011874834552948386, 0.022259971204675214, -0.015731306275354656, 0.002626234115232721, 0.023541123600912643, 0.007009128051614509, -0.0018927555013975752, 0.01921868181215637, -0.011141339612338437, -0.015172840082076075, -0.014993312351285055, 0.009959871622936569, 0.0046118342862733015, -0.001520908165243365, 0.03082595132420775, -0.00022479954947571485, -0.00456313438833116, -0.0017795192550626613, 0.006254956098941818, -0.003101426175214096, -0.0014113238246635012, 0.013706682519589826, 0.011152776276898006, 0.014078436024113237, -0.009724515734285054, -0.01661934549775353, -0.0029527928563630374, -0.004372397315905747, -0.016250932835311805, -0.0055689163272924355, 0.0020411117352900935, -0.022316429726160318, 0.0008662917850696153, -0.0052526228830784, -0.017664586037553786, -0.005150945261440381, 0.00626388846591445, -0.008392347911349822, -0.008307042192637054, -0.00026281583054397546, -0.009596420378619262, 0.002235504474595172, -0.009541826663410745, 0.0006512169681679327, 0.0003424487394352738, -0.0206930207391697, -0.022178284634167763, -0.02045104978660757, -0.010094070149726943, -0.017116216100257018, -0.00884255879313244, -0.013665153090045951, 0.0019782076977110843, 0.016953532199654103, -0.012626329787573031, 0.008876485410903332, 0.007001151697500477, 0.007544083173015148, -0.01040739854176288, -0.008389896749977449, 0.004849950850291112, 0.004131030529384597, -0.011848852944509798, -0.0008329254956991286, -0.01011693987978524, 0.006641120719960834, -0.015587727117638195, -0.02169509579174946, 0.007470636595439752, 0.009167442083261675, -0.011653951683281202, 0.009793794974555216, -0.005734087351712692, -0.00737589847152867, -0.0035798793657050507, -0.00852270819661329, -0.022569702020992625, -0.004509811458504064, 0.0008296116512601917, -0.015232906458726192, 0.001113981798360232, -0.01582333566055037, -0.009335084027459584, -0.03719088671869333, -0.02239820235397251, -0.01732367199182813, -0.02228156995347153, -0.0018476198120650506, -0.0034313583110429273, -0.005962062884902078, -0.0029665223185736046, -0.02046599181013237, -0.003941784917763065, -0.005904796259803724, -0.02451069965070261, 0.013981097233628783, -0.008407554549675796, -0.001428171088818246, -0.0010930234799590313, -0.0012710271251226055, -0.022935318142460633, -0.004604474543936009, -0.010116339730777926, -0.008654670928764676, 0.015782597923059208, -0.008521979715996742, -0.011053382402402431, 0.0063937238668927525, 0.006990366072851354, -0.014123821642069961, -0.006683433067969013, -0.011202938060353851, -0.01680105612751192, -0.002946739202134953, -0.012619506950557031, -0.019521848690642333, 0.004134719254927422, -0.002683582809322377, -0.015264865666349532, 0.007249428417751888, 0.00448963306304098, 0.004678531203477317, 0.010862854078713966, -0.0023255642253931803, -0.00348552551582966, -0.0003140350979478433, -0.0020387625142577704, -0.023324501334508706, -0.005185039163398966, -0.00112068954690121, 0.0035165310690640304, -0.0024394165844013917, -0.001920398872268684, -0.018104561945692467, -0.013000790512220218, -0.031766362391245945, -0.001593829228624183, 0.020045663022833622, 0.01999517424360834, -0.013092316988778191, 0.008635782991417363, 0.017693253759869867, -0.005593666194887356, -0.017275071724483778, 0.020804507439751645, -0.007733314603601065, 0.00011645107680700806, 0.025679203698999814, -0.005121543388999239, 0.006947781804351616, 0.019107734718870173, -0.016223383935246572, -0.016370422402715242, 0.006302178012098097, -0.011503499013089604, 0.003418878061095435, 0.0007187968658745669, -0.015971636151390408, -0.0006976395246293672, -0.008512796842897012, -0.007194794645775873, -0.004245261397633747, -0.007108111753550434, -0.00305666467270293, -0.02039050282828045, -0.006062278308930559, -0.019115634776995658, 0.01532861455049523, -0.019194995054071243, -0.00936503890294211, 0.0016885471439020518, -0.016485278435259678, -0.02174309572736847, -0.02415806980377825, -0.012921298723375914, -0.005709374726234186, -0.0011106890561853224, -0.014250084618296991, -0.01105432509507355, -0.0029197923563860895, -0.001288062788432824, -0.01000339909534507, 0.03532250834173189, -0.012693314931570417, 0.011397308325367703, 0.021309805152719723, 0.006480819937187384, -0.001885423976253899, 0.006957390093258137, 0.010517555431545865, -0.031389466236162594, 0.0041820565157386505, -0.006427876508320538, -0.005848461521662089, 0.0057547893227484406, 0.005529102785015363, 0.011010105913485294, 0.005380021384776028, 0.019233611712485933, -0.018410833550949437, -0.0017846264616878194, -0.010487049082061408, 0.002356398518293396, 0.004119214285621621, 0.007895952616251369, -0.0040181850998541905, 0.0262131044370055, 0.01481262005527435, -0.006684315469211328, -0.01213636396680114, -0.013237442675404557, -0.018059390185955076, 0.01650109326103073, 0.005950367419783813, -0.013558937984098796, 0.02555522098270444, 0.0021950110795441336, -0.029117195819414167, 0.012754005587440404, 0.015358018353600152, -0.011463004684821192, -0.011214371956828471, 0.010738109186226434, -0.01921929075560637, -0.003140439594856396, 0.003380692247819049, -0.011120133044968096, -0.00894395972255458, -0.012932983686957639, -0.002983697882241442, -0.02191917177150326, 0.001533011520702273, -0.007692321514678784, 0.003141453113939284, -0.008228005923621615, -0.0034641139352133937, 0.007775914443752345, -0.015231976357288006, -0.008197884355494641, -0.0016700332063079874, -0.025019591651233984, -0.01824054287616418, 0.010387019155964362, -0.0023880223317235293, -0.013693006719097789, 0.005196187926790146, -0.004668245580900228, 0.003834634946569618, 0.012326650840518443, -0.030686895092389966, -0.006906763067285426, 0.020205220772519596, 0.017349716672408387, -0.014028340875477512, -0.008976607680010278, 0.0004998060401693107, -0.019445184945559114, -0.0006356041763816398, -0.02001162058676028, -0.009565339158372115, 0.003127928361661762, -0.005373954732738257, -0.02785740190212238, -0.019611483384772924, -0.020831322507504156, -0.011412657959197074, -0.021691273860173443, -0.0013262837234497562, 0.0018998906107942583, -0.00979058098345352, -0.009143136070938801, -0.009440359688658802, 0.0041835509249455675, -0.012049696612930401, -0.0246923497837671, -0.008168102533469482, -0.012348610965386666, -0.01461094396092266, -0.004909655239121596, 0.003803497530399176, -0.027276556578798926, 0.010251050775874416, 0.0008971266066635172, -0.012096287684768404, 0.003872066713260677, 0.0016442429432009106, -0.012243484842260764, -0.0053336001730128315, -0.006526403274646682, -0.027919892552103493, -0.02000428886928286, -0.023891226487970797, -0.027420096753590584, -0.005102765658765131, -0.004601705771431538, -0.014951926508557848, 0.010276868655285178, -0.007779130689260289, -0.023816230971642587, -0.012526463795539096, -0.015488160936315064, -0.02028947296709948, 0.005562647368832705, -0.026083731453018722, -0.012091942511806697, -0.009161711527175152, -0.003531737422405332, -0.01707642516195406, 0.0023009086723267255, -0.010347362038435772, -0.0026919748674554774, -0.023529930474477663, -0.0012516423031523475, 0.004906530753453471, -0.015117925048116918, 0.00712264256587758, -0.014020458867439562, 0.007411110334838602, -0.002238751292566784, 0.007989887585446553, 0.003542568279776313, -0.010710967771847607, 0.01842806288169898, 0.016360292096966163, -0.00842386561048601, 0.006828758460590915, 0.009541329466726308, -0.003244730632668875, -0.01188201243595021, 0.017084867483639896, 0.002576068555780418, 0.00640028666019067, 0.021853162091935954, 0.014996753038795491, -0.014610913625541762, 0.009541493221460823, -0.007005463959239396, -0.016382905312262292, 0.027716071779009723, -0.004107381694696877, -0.006764977204669567, -0.015417878974828804, -0.0014124033482186145, -0.015385847119015804, -0.03670388428627786, -0.011821091060337484, -0.007469273389989302, 0.0009546772658233253, -0.005245055603766792, -0.015848812591437094, 0.004479698407090997, -0.008557597912334977, -0.010453605481291638, -0.0022057530138691393, 0.01592294499496036, -0.010053058202897631, 0.006888384527795997, -0.005315422339062589, -0.01755336731977629, -0.016513298037134697, -0.01352565345125561, -0.006767346425190207, -0.004272504182331482, -0.019692755569507732, -0.013968377785107223, 0.002453891633794561, -0.013104166050455142, -0.014599348232710892, -0.008226099575932322, 0.00355842150623696, -0.0092984778948837, -0.021409403872324536, -0.004556148502677846, 0.020607962429050997, 0.0118244566867508, -0.020624032653925102, -0.018795666522429807, 0.014024756575268402, -0.006191154589922187, 0.0018231619297755745, -0.003596020361319973, 0.01153145172549077, -0.003495707476181777, -0.006071721651095867, -0.004811483823953286, -0.011378912543588212, 0.0028996060479478795, -0.0029339834534332326, -0.020520701240837103, -0.009095131159963929, -0.014253896016151938, -0.01508520259104949, 0.008691182272253198, 0.010553819311243781, 0.004130940411085659, -0.0077929202681122555, -0.014395106117678136, 0.006758983844790823, 0.003576191812485739, 0.0039584133250259055, -0.01924584329566879, -0.020896223785228582, 0.018427493002134917, -0.011343815764947826, -0.0029032583736482145, -0.017299064025663193, 0.012863797965580298, -0.0016612080490386954, -0.0019552500530317803, -0.0044404802197312914, 0.0020156840993124773, 0.01618903792803133, -0.027398730393742073, 0.005070745345059469, -0.007691974538928346, -0.015605405330566096, -0.008322176813900635, 0.002586585820629288, -0.025714293004802127, -0.010498997997864676, 0.0017766463954853261, -0.01599092758500895, -0.007132385495850613, -0.00015768328578081483, -0.00823231480318436, -0.00475837280432502, -0.005920914407192165, -0.016345828025491466, 0.008977682195454889, -0.019546865261932226, -0.023390579467256718, 0.001596162342954636, -0.026246145337819035, -0.01808374132183983, -0.005203832684301164, -0.004944800120189532, -0.012671547241872942, -0.006867364309491993, -0.015345460906416943, -0.01068503252472001, -0.008595059230490714, -0.009983951872258496, 0.007018159310508213, 0.0009307935485302919, -0.007078392229100023, -0.016791649073209756, -0.004778153932477736, -0.017090997786451345, -0.01943230917440283, -0.0028948031965150035, -0.002499324487252974, -0.006945674190702763, -0.002255828628560586, -0.0024118121067077474, -0.026220964184741825, 0.021333571152076788, 0.01731479869733719, -0.014821233545222938, 0.003964403280836828, -0.0064127756803427785, -0.003713594994934752, -0.005165886681261264, -0.01715304223271779, -0.0059088576608372755, -0.011497942117141979, 0.00021955507380247668, -0.029164766149906977, -0.012956017693718194, 0.0023052064270499845, -0.005396988605089265, -0.00789793254772572, -0.01249507553397422, -0.012702579089867133, -0.009445325426635488, -0.02578815411542917, -0.013136398941638611, -0.023838751453237737, -0.002958032303733278, -0.022039873190836976, -0.0009555138354425419, -0.022988193423625944, -0.027741748761497525, 0.0005529786932776156, 0.001359956505555491, -0.008687138388971465, -0.0011902617155344635, -0.02188722204134537, -0.0064238123082102664, 0.001742813023953346, -0.007218275938494852, -0.002371236733706739, -0.011687365818084128, 0.013023163688506475, -0.022474125864361236, -0.015473513402597462, -0.012054497305157869, -0.02788760673391231, -0.013625863524549291, -0.01317010011866926, -0.02813097799936631, -0.01607200326320271, -0.025902497674676124, -0.014120876258619117, 0.0039930745748246906, -0.015039571015272877, -0.007297516855025086, -0.0013160489926915917, -0.01767120891763577, -0.002717356719731792, -0.011773107211021065, -0.012269224299444053, -0.016874318860592746, -0.008909013592661158, 0.01076837573818963, 0.01018836527332731, -0.005911344502740308, -0.0022818511552972365, -0.008233568962310015, -0.014661042031159914, -0.020333101675327064, 0.008675988022082767, -0.014259808281375234, 0.0045129109843843355, 0.004645988513140306, -0.008908505733049894, 0.00393721382393101, -0.008928616960096222, -0.00975259803342884, 0.0038700418358748544, -0.01494306610014698, 0.0045734104292865715, 0.003644170673801639, -0.027616667044435973, -0.023989231539618707, -0.010161571741313569, -0.0242112009622794, -0.020585505314419224, 0.001487957956018028, -0.021433358009818673, -0.014486168554535479, -0.009929158295450383, -0.028067034420123767, 0.0003635724832216347, -0.003168393149478049, 0.011714235344656793, -0.012507889897035102, -0.01217121070710527, 0.0012554311011547506, -0.007692941195818787, -0.022948649631051952, 0.008084586962410281, -0.010516997442694796, -0.00870634707876941, -0.013885956743726748, -0.001943641906783528, -0.01797385420642315, -0.01655560649105008, -0.0066213359443474595, -0.008951264710481941, -0.017155886889311463, -0.002182117986553543, -0.0030502067880415922, -0.005564965311925368, -0.02518296356693223, -0.014572618055763324, 0.008411201944580686, -0.014389204046544908, 0.003556870780033722, -0.004069839887822704, -0.004376931586145671, 0.0009145291223262269, -0.008175453831426985, 0.0034932356800994034, -0.014523118952264182, -0.007084184505747946, -0.011274822078799146, -0.014698909362713477, -0.00048013701629716463, -0.0013474695984229616, -0.013906201460325767, 0.007504025861210483, -0.0017308526809738083, 0.006825425148365378, 0.006475331661041696, 0.0030952279563156333, -0.0072237093359614184, -0.002143646277534117, 0.018943535890141812, 0.006480724984537016, 0.00421597707217396, 0.0018269795799083525, 3.734724341662044e-05, -0.013874426508228786, -0.021012574337861755, 0.0005867136961538581, -0.004010713439006802, -0.0018720776374862992, 0.005188614126651284, -0.011381909075298041, 0.018878886612122173, -0.013477792212373526, 0.00014581956682920968, -0.00799945993479351, 0.002796643813781828, 0.004726494250985069, -0.013417018128268647, 0.005638330817779122, -0.006340397129516697, 0.0030626477182946134, 0.00430165248846683, -0.0023742613981413826, 0.003777967982219268, 0.000716666669371241, -0.0009470495379155354, 0.0057833227321864265, -0.005391917122451438, -0.01944813150969163, 0.011561704552754267, -0.0078068047243208885, 0.009279840300138011, -0.002067375046189465, -0.01917516218420276, 0.006947462852333801, -0.005126859590809645, -0.02303155590081864, 0.004541836606184715, -0.01347458348113396, 0.00484690456791207, -0.018378313467381283, 0.00248697560273434, -0.00836537356592763, -0.030506959505890236, -0.00028593144699056865, -0.01389065551784149, -0.0043780230715027325, 0.011944383486140287, 0.012990282233545229, -0.0073388339457044665, 0.006101080079795104, 0.017520854014807172, -0.00019924306469403606, 0.011904348262579939, -0.020562240508766826, -0.022852307463373002, -0.000894751470072996, -0.005319684131985088, -0.0019446412889670577, 0.03433851423216956, -0.01525576852925404, -0.0059067358076784855, 0.01479948888355151, 0.0030519743044512774, 0.01022730954083517, 0.0066020989885294265, -0.004530728462715279, 0.01379991094117173, 0.009173990352524324, -0.011009149861213405, -0.01533881911538885, 0.0023107893278546568, -0.015067375011527861, -0.006894095592456258, 0.0030456053039561795, -0.004988717401453949, -0.020135228669947273, 0.017064047219666943, -0.004724783549653736, -0.018482119339232522, -0.01675765674612595, -0.013085946698947588, 0.001114695327114761, 0.02370666924947867, -0.008863526273171093, -0.027588026390930605, 0.004845832660148991, -0.0023110830169325966, 0.0038413378791574805, -0.003155357325309498, -0.0005624204149018363, -0.02202779284411933, -0.007118151469674877, -0.004321136821052621, -0.013403434763930359, 0.004121827237050821, 0.010845873318541258, -0.02621095081280457, 0.009121785666723153, -0.01834599757134983, -0.018453351246824626, 0.002017856176339916, -0.037205643015117563, -0.02777769223427113, -0.018445570089026884, -0.014028748618432545, 0.0036671998565724413, 0.005874002900535555, -0.01876436747801761, 0.008024605090760596, -0.002653211885465448, 0.012599809670445444, -0.002065470715922023, 0.010197524710327484, -0.010287678904508126, 0.012550934384431615, -0.009774140169443167, 0.007743081713874036, -0.013045971537832646, 0.003008851445600473, -0.0023435318004322004, -0.0103712574702308, 0.0007454572640477391, 0.008975015031024524, -0.0016407556734240813, 0.0023571691033261338, 0.014744201479941092, 0.007402410101936703, 0.009107699809271277, 0.010810955408947763, 0.01943157295233243, -0.0031210144350956193, 0.014672557995916559, -0.01745013044347283, 0.024400002853420633, 0.0032747174652937396, -0.00984879298313873, 0.01022956825413332, -0.001759139373774328, -0.022536470729579046, -0.02858158332177727, -0.0115587998126555, 0.008482085116095247, -0.005506298782360647, 0.01073697967225808, 0.0037973370623612364, -0.00693102938060937, -0.018080649823200262, -0.0035500673420467733, 0.0012674114063351103, -0.012779272663959835, 0.0018687850676068665, 0.000695936563134921, -0.014582947613746226, -0.00958545628562862, -0.006968815865943663, -0.00330000539753177, -0.007334308075672036, -0.017480872337603023, -0.02372139810921586, -0.005985547928719305, -0.008572658984904188, -0.017397814898041278, -0.012574607024534681, -0.003233422477599667, -0.019504593597845996, -0.01036085151800277, -0.023860086940353617, -0.025528305309549727, -0.005151846677002269, -0.0008466641157850984, -0.006206996745301231, 0.0007566560368556961, 0.0024930518276576157, -0.019070816195598677, -0.0028385031931459064, 1.700711643343007e-05, -0.007965162563069575, -0.015831504427194304, -0.01187368475000197, -0.02149758691334294, -0.0217169306629456, -0.010534688471630086, -0.027959151987916105, -0.02206803315649642, 0.0038042631563017094, -0.0008617757278525757, 0.007474286103489195, -0.0038596788455344338, 0.0020142855739444638, 0.0032299204803465983, 0.001423559192262262, -0.01232653637004251, 0.021765771775147373, 0.01948429877460223, 0.020799258545693804, -0.001914521805507357, -0.004734368998852708, 0.004419992387064939, -0.0009980534324156827, -0.011816588956445395, -0.002435696565283261, 0.004974477207782822, 0.018794629678171037, 0.010605003176457383, -0.00651988647856875, -0.008695183170671134, 0.026240587493623232, -0.008086356050047495, 0.007328219190320525, 0.0033525442004711816, -0.023396676586727515, 0.020315453189372917, 0.0064024961921801595, 0.0053287217536480466, -0.005219876268952731, 0.00021735309422087128, 0.009938513219090278, 0.0024898598145831853, -0.00586256290596927, -0.013011820856937577, -0.004122150282091714, 0.007242626180209696, -0.004495804267696501, -0.010674373889734138, 0.01091700896358988, 0.00953945271214218, 0.01703863220471745, -0.0248989430763359, -0.005287691535100663, 0.01657146151801767, -0.017045250940639425, -0.012426278508920578, 0.0010265586347664093, -0.02644431348085992, -0.012550618320567659, 0.006777321163101184, -0.0048814230696321605, 0.0054422318713757785, 0.003056061978836643, -0.006763021623552698, -0.008655373621360157, -0.0019363127890927583, -0.016568042744267125, -0.013087716225857568, 0.006901082105104794, -0.008631079452560989, -0.005032701824905692, 0.01022754262850002, 0.007133636998139841, -0.009400380216151076, -0.010340885051035555, -0.0071468966450909, 0.017822179834404858, 0.01823953675358495, 0.0005663874516817613, -0.001216739842490898, 0.009657327430698063, 0.0011990325433705819, -0.004817134749583078, 0.010821707455458527, 0.01214728563616222, -0.011589532221831391, 0.0026552689379113594, -0.000941621468399458, -0.008701345085139799, 0.015812280065548304, -0.005335452168571911, 0.012531851913687593, 0.008250134606389153, 0.008746932438812678, -0.01980262939373142, -0.004094190133878752, -0.012166543063681555, -0.006486351132593637, -0.016225529415395283, 0.0032997737532629865, -0.022637682862787077, 0.007349730560465868, 0.0075135239965900035, -0.00463922583924196, 0.00135604069236804, -0.004612203948623452, -0.0023515276279794752, 0.008360034615335915, 0.014582258438950014, 0.0028538799189402834, 0.017638262540851744, 0.006137971577815406, -0.013565722920929385, -0.008760485095884065, -0.01623915549960341, -0.014542361013820494, -0.012716551389643654, 0.008696971567292535, -0.00810452791181057, 0.008670425533630854, -0.030756474607161546, -0.0012734586388266555, 0.009237907028376752, -0.0003524593640502037, 0.0002010554163722395, 0.008659015948225322, 0.00522670992557677, 0.005284862085646197, 0.006879489874060525, 0.01312478237514823, 0.00683517982957314, 0.00701239369589475, 0.0065269816000652105, 0.007641030675860563, -0.0029408618191495988, 0.012040591782651763, -0.0017185793574163073, 0.00899387860541533, -0.0016236576633132831, -0.0055152174652718265, -0.004118163443340606, -0.004462386875096778, 0.006937909596717067, 0.00498911415664576, 0.009384524091897032, 0.015284704427701612, 0.003884018746798732, 0.011328384599511555, 0.0100212938444247, 0.02975840938543161, 0.010706774788903462, 0.010296825129703082, 0.0017578487180029045, -0.006255962843352402, -0.0024486499789280695, 0.006730500223803925, -0.0047506169694130984, -0.0012767869689562221, -0.012729913215066946, -0.025688869494706112, 0.0019073426466515012, -0.016349111218690277, -0.004674273237346682, -0.003681621807449713, -0.004118009268218305, -0.001348121899110148, -0.010622526005388292, -0.004794690540027763, -0.011300459238559192, 0.021724182167205845, -0.0003490648865727343, -0.01592188248247319, 0.0017104094546167954, 0.018813417600446716, -0.016916058603425644, 0.004216452038526263, 0.004136354644837351, -0.021280264056726835, -0.00015056558473401042, -0.013624028665576141, -0.01351899263907964, 0.015522305708710382, 0.00787788300820161, -0.022515947863413276, 0.0251437640517851, -0.006992960127164478, -0.00987474526756609, 0.02646155848220673, 0.012321585350635543, 0.002156531493036104, 0.0158640581836785, -0.0016705015861267656, -0.0019076268014846594, -0.007958774651232263, -0.0052410396734999445, -0.009527802989961365, 0.011301714261981207, -0.005860962503175381, -0.006648866426241204, -0.01614086728997193, -0.009691520285794357, 0.009639623045901258, 0.0014055584008289875, 0.003052468679973976, 0.013019875605612767, -0.0001228839046833242, 0.009003319331579041, 0.010053456881198705, -0.02023648239512095, 0.012900501312925566, 0.026067452321427285, 0.008581467319921236, 0.0033254465758240296, 0.0077314873845748585, 0.0026479581196100395, 0.01833796811078648, 0.017947302428027608, -0.00251436363556057, 0.003967561799547483, 0.005179721614001827, -0.0054568954185508075, 0.0015227493707402322, 0.008108555308024203, -0.02696723391612072, 0.010016170697995638, 0.0029443544329765692, -0.022802862164034647, -0.0022104260367914524, -0.009198493383224716, 0.003324249884025596, -0.009186146066243572, -0.000704026980494363, -0.0006872952669983245, -0.0025146871546563583, -0.01360953832312047, 0.0024414790919979677, 0.005535670352975658, -0.012639732957929566, -0.016278120943702686, 0.01577486530050125, 0.011502672981469567, -0.007990725903459001, 0.011383964136494762, 0.0037832674124166185, 0.005573355299719598, -0.0014213969350114998, -0.0013058848761305487, 0.0041226489356228704, 0.030853563238521342, -0.0025306416767652243, -0.004861557362214195, 0.0037826502604318903, -0.004069851560508539, -0.019583364067101375, 0.004125938772589068, 0.0093709870200909, -0.010236107432309065, 0.006858497815308078, -0.012353593107132499, 0.001362202029922304, 0.013953928711889661, 0.006433339946582337, -0.003610942791806399, 0.009104395006622456, -0.003280702325128085, -0.0003716462493324805, 0.013483831214810917, 0.026128203879825285, -0.01261976498864526, 0.015292990988142335, 4.050515258966855e-06, -0.007033762574746545, 0.019419651924514995, 0.00957461224344975, 0.00014397743304749174, -0.0082325720597796, 0.024219259380835544, 0.020268074871902193, 0.002762361464659804, -0.008390130683073394, -0.007229910020398522, 0.011449997636011395, -0.006346324727111068, -0.004828725073607423, -0.004613531848140539, 0.021756778088269348, -0.011117903163273433, -0.0053008860781148725, 0.013743370324939247, -0.003993956295892078, 0.0010830613859970503, -0.0029256508989259273, -0.0015969877287505163, -0.0019485651160794483, -0.0004585499248360251, -0.010758803030339366, -0.01192857130961492, -0.004488789259470213, 0.006906485944726646, 0.023674856854240194, 0.00912944017880545, 0.0008488130387040435, 0.010126107113927144, 0.017579662965006442, -0.024276367783517994, -0.0041646292877937155, -0.019473294889212414, -0.025047239806428437, -0.015092308780051123, -0.011245518719387223, -0.007419315085290597, -0.006279946585935814, 0.002749408073451068, -0.0007208748199657837, 0.0025594314829126314, -0.006829002695154547, 0.01885345941776034, 0.017297737116874125, -0.0026421646695646067, -0.004036298850293199, 0.011258472716100447, 0.014680016043072883, -0.0016188374987183716, 0.013515263652455808, -0.008250285077366061, -0.004325498834017712, 0.007833145706325692, -0.0050257451191246414, -0.0019392339342380843, -0.004479015415971493, -0.0013003090020957473, -0.026247727361679248, -0.010927787567036598, 0.0009307208545362347, 0.0013051968394423498, 0.008405188870529514, 0.014614760875828017, 0.002322605928758868, 0.00661788841924697, 0.025762997161058985, 0.010337117972151122, 0.004774949333629053, 0.0019609113134115095, 0.009224325034858224, 0.008811985081979263, -0.003964824437585643, -5.572180404221126e-05, -0.006674461466192108, -0.009454344143611694, 0.01481869836668774, -0.015100931875591257, 0.0018177788475959363, -0.007748903358545482, -0.011217104351258788, 0.0012034144700130086, -0.0076456761627238905, -0.01341026653504032, -0.018858673633884597, 0.002093564742295227, 0.0019422558313899818, 0.003976340675381107, 0.0033611106183941003, 0.011446651975288241, -0.017211561666299193, 0.03130821766270938, -0.0004416749441982607, -0.008723967923337862, 0.01292468199129003, 0.007451562670269132, -0.005496085196211212, -0.0038887388454671916, 0.018224061854900532, 0.006622075762163121, 0.005496759100473151, -0.005191500227120754, 0.00017358779966748233, 0.023023244104035882, -0.009289089300673558, -0.008169419638019884, 0.013373962086896339, -2.4791266048177423e-05, 0.0027227695138232963, 0.005365186484205639, 0.009507805178540343, 0.005943766900099682, 0.014400158892165397, 0.01120382849812614, -0.006226882443298835, -0.018095670822797477, 0.007555828223728137, 0.004623557291268156, 0.017565723194936027, 0.0076849590862548105, 0.027450164999461346, -0.008676145191936947, 0.018004715476216883, 0.01419972907413624, 0.012335086030149673, 0.022624959749459897, 0.018976791999553707, 0.003738391482079319, 0.0017880092615790457, 0.021635196837978116, -0.00022935543145833828, 0.007842584724861618, -0.004215609966979277, -0.016133752862972004, 0.003689421495809482, 0.013532732336174408, -0.014034195950547558, -0.0030900581181044517, 0.006124892080019177, 0.005208601929775544, 0.01516414401911756, 0.02497680457983977, 0.00019206940541169635, 0.017654109801679304, 0.025804125075328182, -0.009732730690718786, 0.02717143552798963, -0.0019783257679319584, -0.009486591928799968, -0.017458599028529333, -0.004208862017369783, -0.015823449023062305, -0.005593646505965339, -0.004282955908832569, -0.013855002953401531, 0.010412112687946201, -0.024007938160941725, -0.000761270696131233, 0.02718039840406963, 0.002072625618006361, 0.00635681985039095, -0.0014962350533963041, -0.0167602000151056, 0.00910935707935497, 0.012615323228942047, 0.002327403351444009, -0.0006717077935101396, 0.01762536810497057, -0.00784425279576862, -0.005742898203836348, 0.003721399048718195, -0.015990517102210396, 0.004454899104370199, 0.0013807032902918225, 0.004101289008646375, -0.02172909319766801, -0.00921519629278974, -0.007078802300892069, 0.002276966804224987, 0.02061998327339861, 0.004536443949232936, -0.0011925785391288292, 0.01893386821213386, 0.0013109392875979417, 0.002788020153325825, 0.018306801345129454, 0.0013335647502516633, 0.003124907456538763, -0.0005360433958990214, 0.0032656662632487106, 0.0034146288967693275, 0.004438853623658017, 0.013527600476680637, -0.007059302113564941, 0.0027600605412539604, 0.016063330298291892, 0.0016302330851567309, 0.0045722857908072475, 0.0006621866715680839, -0.003931163135080082, -0.007167593375763113, 0.013596241108272572, -0.013022505120123198, -0.01912265131092929, -0.015371873932911883, 0.0025674508407226883, -0.00192682666887212, 0.012406552187887733, -0.007197654791095751, 0.00421575556368446, 0.014807136288322979, 0.014270335938676054, -0.007085688402117214, 0.008990180184901084, -0.012653442205930357, -0.001890287201199754, -0.013922805423300235, 0.012259167348801997, -0.0021533793739149792, 0.0010056116570238928, 0.025363523723758066, 0.015892752232038815, 0.009535039882125932, -0.015949065234067326, 0.004985406383685755, -0.01676064302685739, -0.010595348578706512, 0.004427779062424775, 0.0056597305953424775, 0.0004921434711371921, 0.0063027787132737744, -0.0007081237986304395, -0.014289397322126151, -0.004759237232972917, 0.012461597816408654, -0.007202691329629838, -0.0027537638271226995, 0.0037672646268656538, -0.019849880771602997, -0.015087705883527147, -0.016229782602937032, -0.0018430411168804891, -0.009093811676369972, -0.01739538015647071, -0.018342743014447174, -0.0002754235295099149, 0.003499468297217714, -0.0025946932528901102, -0.008684309086552492, 0.0027166373397727833, -0.006081411916594258, -0.006509211593228161, -0.008021320891428195, -0.007699173438189388, -0.009303820374080753, 0.0010712333970032497, 0.023152368115579008, -0.002722746062934185, -0.008345052006437214, 0.013274604983103377, 0.012978551819583278, -0.0045388347559437, -0.0022070311821745523, -0.003819235721139753, 0.0036405030367406633, 0.023444929977896427, -0.014911442115914157, -0.005883695754186914, -0.006364047236680474, -0.0008021117738913125, -0.00010977420205142129, 0.01276204746929059, -0.007611055750819258, -0.008397867139209488, 0.023597912286526492, 0.0076549127739408565, 0.0046991528451211925, 0.021071702696262098, -0.001694901904792948, 0.014513592456105175, 0.0032873080445521316, -0.007863004342086683, -0.01368577743557902, 0.00939782568368861, 0.026425097412858606, -0.006613907956293092, 0.014111117469030876, 0.016740829712542846, -0.010454554919194886, -0.002529894006071362, -0.002510562066618356, -0.007669695006381032, -0.006369904450303752, 0.001355715874773074, -0.0010536905522235763, 0.030033947839326336, 0.01240761948281117, 0.001774263220818825, 0.0102170137342263, 0.0021434117451451865, -0.011014784125039388, 0.00940230776731517, -0.015172970429259075, 0.0012808970949187125, 0.02291989282999381, 0.000873276156507908, 0.005728091402385916, -0.002082542549421382, -0.01215419940004227, 0.004269367203356292, 0.008780011403398727, 0.016418010476332855, 0.007428869248390307, 0.013327086250936494, 0.005629920616406413, 0.013178563802239914, 0.0169084226413507, 0.006425763568876776, 0.013908055622015763, 0.011190512898819312, 0.005959204171622666, 0.007330805460492577, -0.0211868909260597, -0.00637031736727176, 0.01925723519487052, -0.007873286253642186, -0.0018453961822930322, -0.004881893629633826, -0.0032362454822896336, 0.0043782886333457284, 0.00921313659459769, -0.0071996319230791, -0.0009183355072234067, 0.032024118681170805, -0.0006048546247334444, 0.001449254222138952, 0.007883587674306058, 0.0024627334805153002, 0.020231609820849334, 0.009135585510005107, -0.012408003661967676, 0.007945907253279264, -0.015552246467312113, -0.019308616269809464, 0.014877661275623174, -0.0034627877958780854, -0.0026791093565146197, 0.002739984646074668, -0.012619754727739647, 0.001743376846310657, 0.008890021896229647, 0.015322917017926443, -0.011779485643931635, 0.005305581737842975, -0.008097287619103955, -0.014872579630767761, 0.01971305204047487, 0.00744416588806678, -0.0021059997247339065, -0.01018588989431017, -0.0009435206447331673, -0.0064970136638806625, -0.008563100860921036, -0.023559909966214737, 0.008506140551112299, -0.012743522091691084, 0.006715548394640951, -0.01638744584036117, -0.0034432195932215985, 0.007570636555930201, -0.02115103965020295, -0.0009823935326163684, -0.0033033315195146423, 0.005733065880870653, 0.0175488686780382, 0.000981557424374808, -0.015015180781632406, 0.022041864419088394, 0.0027101304649387982, -0.003387475130124308, -0.009901506603301866, 0.0050610548785645325, -0.0050980889390341, 0.0015162913485960018, 0.007934983664595517, -0.0013623985687292522, 0.016272905415674273, -0.009315242301390742, -0.019074745333831734, -0.015743910859727272, -0.0001862914766459005, -0.022541947198149122, 0.012311282377458647, -0.018222737249662013, -0.003279975671564571, -0.002866849313657773, -0.02235448739172008, -0.007991735572731234, 0.0011381260534303389, -0.00408486335060836, -0.006448102019840717, 0.004136036889713871, -0.0013297655040606614, -0.011057739582264216, -0.000352131310645078, -0.017579155497915794, 0.0001466460538770523, -0.013993191067596323, -0.005223665658200916, -0.012212698309297925, 0.010153129741014595, 0.0023638810787059146, -0.009762171125964558, 0.0026511909522940608, 0.0003738035546422494, 0.004056856917556931, -0.0029593472946463175, -0.0021601995579497222, -0.006762952869134289, -0.01964347127387741, -0.00035159798293179427, 0.004296206600556819, -0.01243909412517363, 0.0005785002941471148, 0.0015668233163177222, -0.00035884057458018543, 0.003094290470292965, -0.004737236091750344, -0.01685939915323866, 0.011606043590105064, -0.010927726475885604, -0.016269019692883115, 0.006489723824610708, -0.014962517874122557, -6.859129339350774e-05, -0.01400759875980989, 0.005412483990530854, 0.0027903202664225964, -0.010419497835414519, -0.0002485141150783755, -0.005788263123209684, -0.00912444071720199, 0.0026380232720303147, -0.010999057170812515, -0.013567251463430392, -0.0078826927918403, -0.0021769683711764386, -0.0005056844063868341, 0.01699515182495064, 0.012000840991583411, 0.011524743849679008, 0.007694566213518266, 0.02771594348400367, 0.0012495930724645257, 0.014683504053191587, 0.005623881605123883, 0.0034901376931942966, 0.01808536668564671, 0.005978077945725794, -0.01195062978753042, 0.009722359042421667, 0.0028905524924378676, 0.022361347307754957, 0.0065324326236497286, 0.009119871174203705, 0.002123303212122202, 0.010072461180968224, 0.01590261915333014, 0.018498015627853442, 0.02908287513871427, 0.008793539420736941, 0.003652989428958028, 0.016332530461571963, -0.0002317191840915066, 0.01558806884262569, 2.8974178652489938e-05, 0.006050709039528825, -0.016625883469387717, 0.005595178049817184, -0.012599184516332467, -0.015633479962364073, 0.01737823294002449, -0.0036671230860699177, -0.010742506450417036, -0.0003255980107439012, -0.003419860944675923, -0.0034289311106409557, 0.021637292761834338, 0.0073644291697701715, 0.0003956016356962727, 0.010803494420452463, 0.014249638677366604, -0.005599254279282755, 0.011541634021874903, -0.004121693806406071, -0.0069547027330703415, 0.011570846426225417, 0.003406238403372604, -0.0038674280977797695, -0.003563708730692796, 0.009697073274825791, 0.021224909839114573, 0.015132358991289434, 0.01514529656117631, 0.003162018923014832, 0.014559058714663401, 0.003935989450053229, 0.03175013615040822, 0.004622099437507453, 0.006769983996888361, 0.01933388687821406, -0.010786734511921805, -0.007825253774040088, -0.0033213792646393167, -0.007142009267110468, 0.013919599447024379, -0.0050676568099818796, 0.02031152945575354, 0.010500778325476088, 0.019785210311623218, -0.001096954553252247, -0.010189104781704178, -0.006965797689056056, 0.011297324831792951, 0.006114489624163599, 0.012483252428581873, 0.002730388395370752, 0.02487002597048473, 0.021264349725355524, 0.0054888891885964625, 0.013228986350056593, 0.016311880805557257, -0.011037571479358351, 0.002631247104185471, -0.008940158710105627, -0.013907781380024837, -0.008691191015390561, 0.007401505529347418, -0.0009967732623861697, 0.030251666729519264, -7.548974851724895e-05, 0.0025613750586742, 0.004446725066690061, 0.006773738099207721, 0.002425336209030753, 0.003146947399476327, -7.046597810523057e-05, -0.012357708647586322, -0.0016162624464203606, -0.013272324539994997, 0.005475978523066503, -0.004473344208481781, -0.013242354791391957, 0.0014289774864884093, -0.001562074013866912, -0.02038818059946954, -0.019505794254278442, -0.005633041791581407, -0.016882188898798882, -0.009271209181022446, -0.009376804713376617, -0.013837337115510788, -0.002181871551063027, 0.017135153358548663, 0.007327258432589171, -0.011830967985643953, 0.008223418354999274, -0.007930487528336553, 0.012279518760947808, 0.009193282907388278, 0.007034939719085126, 0.013417647940514588, 0.018670991083107828, 0.0046481598958099815, -0.012159536313148015, 0.006138779102761765, -0.008539177451597485, 0.011683892530266918, 0.005349697370788635, 0.007493264553366341, 0.0026880018914488286, 0.0014482786627135005, 0.005427186385643737, 0.0035490027909616606, 0.007321544935869901, 0.0014008989013799687, -0.002716158859808086, -0.008767677587841537, -0.0053987507203804375, -0.009134248982722618, -0.007676796575120983, -0.003317677328884801, -0.02324350109309195, -0.013561071979007086, -0.00720321422595326, 0.011015483913144804, 0.004042737720673953, -0.014796288172574305, 0.009937523354679846, 0.0001319633587218234, -0.011803226630528805, 0.001172681675251859, 0.015114531960892246, 0.007481678825254432, -0.00828836134183191, -0.0135556038168251, 0.004200419557112926, -0.017334048727896997, -0.013057838070126334, -0.0016753178229071282, -0.013764992545613548, -0.01240514414625395, -0.004034052167274893, -0.006496834867543929, 0.00814309087789654, -0.0059818041169846055, -0.004338370677729789, -0.0026141231210577193, -0.01766105334461747, -0.004485418228550822, 0.0006683573997623814, -0.014681949519176559, -0.013136190135967306, -0.010678479810069728, 0.006096138574230754, -0.006129412516482259, -0.01175759199461552, -0.017374317537492266, -0.0013711911952408058, -0.02125238989165851, 0.001970631836600277, -0.0052579585440797345, -0.019352979878823128, 0.0021399133185462616, 0.007722540900763391, 0.000728218886215235, -0.013904173928670249, 0.01558772972064867, 0.004053616088829743, -0.0007272953350973064, 0.022216508499216404, 0.019200255541446255, 0.005785930338157377, 0.026277763242936257, 0.013707490115216414, 0.005271400452516577, 0.013531518740539372, 0.009712702635355043, 0.019608969342279684, 0.007008862529508347, 0.004339139240053333, 0.0014888216157928251, 0.020002625750676396, -0.004770446248274257, -0.009742912049355243, 0.015740732197905175, 0.01417802587022506, 0.009523119203050726, 0.01623895340794323, -0.0033127165775630072, -0.013875949307983804, 0.012807317455770751, 0.0030816280281806578, 0.0071516972682639, 0.01978585032118618, -0.00840226421444728, 0.010230691161386031, 0.009349152643574396, -0.003683980073883634, -0.005155357517350812, -0.0042734742242022524, 0.025428130526089714, -0.005059294047625884, 0.02216444768697509, -0.004369268973630344, -0.016760606097592775, 0.000604695791118346, -0.007064872222033207, -0.017351632427573725, -0.01456576923781033, 0.01238674806666918, -0.005488028691014354, 0.010743922041643324, 0.017348686485944894, -0.002479754907584792, 0.0068313009486903635, 0.013498572823211798, 0.005630481730006753, 0.00839385591662965, -0.005886566715409188, -0.010346408166543428, 0.010713423214634667, -0.001905425644685554, 0.004146284215075177, 0.014039230440885155, 0.0079295354820477, 0.00458736370407406, -0.002233660079048279, 0.008029037265600364, -0.029964233793403135, -0.01220736440296599, -0.0001398122166402923, 0.01105141053410041, -0.021117224125168962, -0.008265574559538752, 0.004605556152017438, 0.006485709612526168, -0.007486640953938122, -0.017867451915231036, -0.00249005732224541, 0.007256002119116752, 0.006134958958091243, -0.0001820892870960697, 0.010728326442608892, -0.004975998733091236, 0.0016571344238342461, 0.015680791531022878, 0.004549470049351464, -0.011968152408921165, 0.0016196646317394709, 0.010011602415958746, -0.00710904606314619, 0.021429679625147097, 0.0066355789381423265, -0.0033364298373945145, 0.0157880611062331, 0.001744460786068839, 0.017592718828757018, 0.02054948528685439, -0.00904169178900475, -0.000549820118514148, -0.006623103917132594, 0.008008814216997558, 0.004519092608309308, 0.011100942354429577, -0.015870073665422098, 0.011372929651380648, 0.017881959704631873, -0.007804543368494523, -0.012428197112883416, -0.0023970040709295195, 0.003928657707643519, 0.0001455289645286557, 0.004121263334504189, -0.00212629172821453, -0.02417465860523157, -0.008897041667221682, -0.02572735520368984, -0.0020983301115585886, -0.0036069936903064996, -0.009878998742587023, -0.014593042394648188, -0.008921967121904332, -0.02363908312661846, -0.017334306915555913, -0.004183566221549345, -0.010026727021908516, 3.5827141735215945e-05, 0.010031805396226888, -0.01765982661833244, -0.013686847090454696, 0.014869395760869009, -0.02097422095887961, -0.006043932123176978, 0.015140227778645808, 0.005501300944946359, -0.0042120694460374255, 0.018358502902756074, 0.0021222272965878168, -0.008352640274239688, 0.011392420207964948, 0.0024504572810503692, 0.009221803365400792, 0.020849717715385883, 0.01615004969482295, -0.02224732290080511, 0.009205386867461834, 0.004787187642316235, 0.004654740488910227, -0.0026758309214039147, -0.007902071185096698, 0.0036879643365446127, -0.0032971760685539804, -0.01769323260719452, 0.010033018889983517, 0.011902698972610998, -0.01272987890040307, 0.010890087025653994, -0.0055606030663121345, 0.0005142335304372999, -0.014497261860865883, 0.0005817986266616147, -0.009397698023299369, -0.005238131103466132, 0.0011388989678748367, 0.0030383101986595582, -0.013278791564019664, 0.00875504261080247, -0.01465966706580554, -0.02208121694208286, -0.011894399901989957, 0.009203182385524656, -0.009211594271421068, -0.018750232614381118, -0.011443381926322922, -0.0014762125089929664, -0.0011663023152333328, -0.0017576851192729207, 0.0009580553060449824, 0.00831455070212391, -0.013141576262452275, -0.007234646289441433, -0.012109257945020636, -0.012355829595663842, 0.009701106627662145, -0.0024636234717390474, -0.019928098867716005, 0.00558575121411052, 0.007917839668629346, -0.008255823991038733, 0.013929093287430302, -0.0020142117755874065, -0.02731469349980026, -0.0031056280342401893, -0.017129839729340943, -0.010316738068603525, -0.0033773120660470987, -0.001926743466248385, 0.004685402122240863, -0.006877541170165392, 0.011045193187469089, 0.0007333219723915465, 0.026930714160905707, 0.009519802366943888, -0.013807574895314605, 0.007949689171098893, 0.00939038091155693, 0.004863594965721204, 0.00730055686228733, -0.0012389102068747157, -0.004449601938360943, -0.0001224264453483936, -0.0017984913169838243, 0.0023753447674842373, 0.021706222773762548, 0.02128439448202473, 0.008286309354677718, 0.023835575366433687, 0.02387624946346755, 0.008166977892427039, 0.016407457834685373, 0.026610016556585042, 0.007516802557310061, 0.017368995072429602, 0.019965974667669098, 0.008227074873485753, 0.01964057551723908, 0.022339059147036332, 0.013303180963783441, 0.02099222300689328, 0.0030682585094996178, -0.019685680510041006, -0.010906678981612353, -0.002915443638434861, 0.02653497527439502, 0.008160180092588544, -5.39062339080931e-05, 0.009704413939882823, 0.021199619565698394, 0.008836382300448881, 0.011547080424518552, 0.011674493614013508, 0.0013854857777967375, -0.0013381766742644487, -0.01443990871165845, 0.002854051894432949, 0.0009655631746555082, 0.009467849542356743, 0.009385588760323, -0.015664401809172477, -0.007104529995490305, 0.007876668174152442, -0.018125369584756527, 0.002259721827693407, -0.0042870280161923634, -0.0005070515126386714, -0.0043569137098528115, 0.0043250583143976135, -0.01612037352335268, 0.003996495458739409, -0.004506521587748347, -0.0121864249761802, -0.0048576119897582575, 0.010461095468464498, -0.013222453779032198, -0.0056810583780150595, -0.010595743899646366, 0.014424778185855296, 0.0028805860644795507, -0.008413526213122928, 0.0030451768870647005, -0.019538869917955514, -0.001619574393487037, 0.009757857824182458, -0.015625278246394727, 0.00018723138820937296, -0.017727516312439406, 0.004464947359215751, -0.011717247178390924, -0.00034632132568232103, -0.010718528782416257, 0.014810317086841135, -0.0024252376632738657, -0.004671103559576316, -0.004182184926764012, 0.015563245107335514, -0.018992275050517197, 0.022470330140045076, 0.015562827728173011, 0.016230020656161297, 0.0008839348612051972, -0.005785420174520041, 0.004072039851665493, 0.025205938195680944, -0.008267534707338133, 0.012510025493996612, -0.0005211589114565552, 0.005214165390317018, -0.0012555094551846917, 0.008997484705078954, -0.002355273732702208, 0.0014196531120073883, -0.014485858206576373, 0.007905627116089163, -0.008419016724931875, 0.002992718959283735, -0.004745735142694089, -0.006052106657196811, -0.0006237431855698602, -0.013185240633390685, -0.022763599028312584, 0.013313685571015532, -0.012463010849964326, -0.004812799752817636, -0.00208124524795422, 0.008833722927578929, 0.0088625052890963, 0.015540720322296402, 0.01609706883684814, 0.013894221968025382, -0.016550841766881885, -0.0082943840703966, -0.008497556122910139, 0.018202088415773084, 0.010086012769194502, -0.0058069915619407214, 0.033690754663156915, 0.017148444174758984, 0.022684219807395885, 0.014261084305091574, 0.02592934956210833, 0.020433289359240235, 0.013743133213689454, 0.013534837223782943, 0.006874706019116387, 0.010300863960989415, 0.007378917781430034, -0.01326624438640443, 0.020235625119116123, 0.005184618092281726, -0.008593688524628587, 0.016324072273966636, -0.016945664151411192, -0.00781557824764166, 0.020072880326853726, 0.005874123470295415, -0.001819015553160508, 0.023520630216109104, 0.0017051658110410807, 0.0020835967809335917, 0.009009417808063178, 0.011261074503646069, 0.012106025045302539, 0.0007927004117539267, 0.0026174962672133833, 0.010386745667329618, 0.013315337439449662, 0.004832094940059869, 0.01341509776679315, 0.009767855904415982, -0.01080841924993635, -0.0017021168203219033, 0.017759127838585832, -0.008933083962342101, 0.003972461519212444, -0.017906752608111802, 0.024355797963789717, -0.010465228870707409, 0.002463428788662333, 0.0007817174326565135, -0.020526127048751203, -0.008815475590225096, 0.000350224135017499, -0.019357841165347844, -0.004552632501695412, -0.021511156163761543, 0.009173451421061891, 0.01642120916377899, -0.02430714431534134, 0.0008441790561868572, -0.014165665124460294, -0.02134866037247555, -0.0026219826161326264, -0.007436588996896729, -0.0067048055242849855, 0.007520100820620302, -0.024416824036115947, -0.006733431399505454, -0.01198000285786974, 0.00464059996254854, 0.015029538802535219, 0.015379356891507474, 0.0004982852213454965, 0.011352897187928262, 0.02683688717865388, 0.01923231099392155, 0.005410665960689149, 0.00619253073967681, 0.020944052478147224, 0.0041572110680013884, 0.011532794536498655, 0.014928224679676682, 0.015782887282032913, 0.020799732534174647, 0.014604742070975495, 0.008171933489612813, 0.02116364891543058, 0.022246947455598885, 0.01973662748244283, 0.01526969619004162, 0.036406646674637236, 0.001618379040884888, 0.02578490669774828, 0.006485741019756643, 0.0011756961361578818, 0.019612267839673334, 0.01688909674320453, 0.008155355936250603, 0.022401673386125275, 0.004111318530812289, 0.02243109151680631, -0.001818175460652069, 0.0107802489092864, 0.012284636986526636, 0.00791670025419243, 0.010081880393931333, 0.0015459251633750232, 0.014654592397039682, 0.006620577695998931, 0.019758308324667826, 0.011699684516628544, 0.011487827288279538, 0.01186474420393143, -0.0045476025228588365, 0.008466949902536618, 0.011276342813944719, -0.0009935371952453172, -0.012956606415896663, -0.007672057055965876, 0.00986344550410422, -0.02418674386486759, -0.0044969137517264805, -0.005600270024885202, 0.0012538650756893442, -0.019681735737324995, 0.0009759069644996054, -0.016603695702688905, -0.0010177619509310828, 0.01901914824851018, -0.0011878877354952037, 0.020775131829974237, 0.0029687497646490517, 0.010706598864974161, 0.027449303260339897, 0.010196524613121207, 0.010130920697771363, -0.01670834233248127, -0.00890288095748274, 0.0074301215507903565, -0.0012117660347563891, -0.011715302365076927, 0.0081521081816652, -0.00416814671213778, -0.0167763830844193, 0.009863350830781005, 0.0258033208809039, -0.01676005189668676, 0.002346156200411489, 0.006439074175874392, -0.0155992670517263, -0.005552100943490166, 0.004233125860540598, -0.01254117570281112, 0.0023946630545051326, 0.022019566501110997, -0.015427721557694462, 0.031631235097468, 0.019956084984442294, -0.002501893005602354, 0.02381964945808028, 0.010434653722068934, -0.009448320062758444, 0.007464534134484331, -0.0007633936329801516, 0.017381777858071712, 0.0033873326416727287, -0.007977756388608629, -0.00150683675506672, 0.006226858405924858, 0.023782117116064223, -0.00674311135427039, 0.001211232163860708, -0.004828233812736938, -0.011882885614410631, -0.015058089243219263, 0.0009957224305311672, -0.008327975414403348, 0.0049551609187348765, 0.01632359019803572, -0.0026345481980530484, 0.002583545388453531, -0.016638315979258217, -0.014554019157144627, -0.010018345806470597, -0.010385154602116581, -0.010884007190776835, -0.0050331926282078734, 0.008311143872033178, -0.00899840086632845, 0.01982115384886214, 0.00612519701559082, 0.000831906999109105, 0.01177284889754537, -0.0016089576932162514, 0.0028565702982553867, 0.02443889526944239, 0.006688008400522215, 0.04958545096226794, 0.008800349206010813, 0.007003418499573304, 0.016989782066847828, 0.012335204457351834, 0.012264311525624023, -0.005828803683034833, 0.010956992694329993, 0.0008201922288698, 0.011407870263449398, 0.0037769306577312123, 0.0006245111742806377, 0.011182766880249634, 0.01369181609497264, -0.004020159295286518, -0.0051032531098734206, -0.003311104563681576, -0.01438702869157745, 0.011872182324211205, 0.005634291945612931, -0.0020214746116221823, 0.005412721321045029, 0.014116902623085802, 0.013023164584562695, 0.009304693638057457, 0.007880362703735478, -0.008196280805156346, 0.012270447482313426, 0.010928883637903036, 0.007621918049004404, -0.0011244357716278875, 0.010029990172834046, 0.01590605882872404, 0.00609550885591786, 0.01411365560215493, 0.005312172024549799, -0.0033893151520371346, 0.010598659179797174, -0.007735093068846103, -0.0016858906362830612, -0.02137194058564362, -0.0006570907668326353, -0.005206436199743839, -0.005098641003646128, -0.01010642096372229, 0.0001334564462368074, -0.007097577471908491, -0.015065478056736796, -0.004399993316747947, -0.002276423646117511, -0.012921770811488266, 0.006930528961253754, 0.013070001707932495, -0.010899534091118443, 0.004244522721282447, 0.0027063665836759418, -0.02071299014842297, -0.0129816035929734, -0.027761916952715827, 0.005729468087732647, -0.0005880468414509837, -0.006647651910639254, 0.0035799003465102133, 0.024805549158917445, 0.006930185792307847, 0.02134236458593381, 0.022514568372221825, 0.039833274775742604, -0.00444021330683809, 0.01300269214299157, 0.0034258355580885787, 0.01565708740706892, 0.002152923278091968, 0.016356112349801874, -0.014167610720637392, 0.013600829252528649, 0.01374868877406061, 0.019358401644551698, 0.021265105980550567, 0.017895974879553984, 0.015915008055237247, 0.0024855868912814715, 0.018188388798671892, 0.016335128084571094, 0.04049839406679696, 0.018475229197599013, -0.006489222770171832, 0.04000696436816909, 0.0031246998997692932, 0.005600394379711075, 0.005999897418553854, -0.024401425790358595, 0.013994007048173347, 0.005479816227901139, 0.015812234216246484, 0.001545494285835618, 0.016725267837268736, 0.02509150913480128, 0.014974233807674323, 0.00670654854321857, 0.0015290280188167656, 0.004234336977902285, -0.005301604878608774, 0.009155547390368531, 0.016212674712044926, -0.010746200670493068, -0.008599363787649876, 0.024772154402133224, -0.002022105004932934, 0.01433626269753222, 0.00226292742134159, 0.005551698801163742, -0.0042173182477138246, 0.011035786681403315, 0.006368165204403686, -0.010343630379583545, -0.02637643987209641, -0.018840804541460397, -0.00797924082566714, -0.013290706625332707, 0.0009205171450576884, 0.00027055303081320413, 0.004708290066753344, 0.0050015777337501345, 0.0028542970533517137, 0.010488610367669777, 0.0024005356501378442, -0.008977583102767825, 0.004281947208560937, 0.00021453734103754228, 0.012877734137847235, 0.0015029492684897376, -0.010407940472673035, 0.020891589203269282, 0.01219233764064902, 0.008724959267269473, 0.020245660862978382, 0.004059144385679744, 0.0036216313962756275, 0.005871921303513009, -0.005475282043242552, -0.007704518243763152, 0.003792952069127018, 0.006634638522513491, -0.010487338103272254, 0.0021063088932769787, -0.010532285053230814, 0.008082891095614352, -0.008513002132225642, 0.0024248927138742883, -0.0025088315910928535, 0.007272147798970174, 0.0053127882610994335, -0.0022475421670911516, -0.00597700614499495, -0.01522146381567619, -0.018869425695601884, 0.005814142508160808, 0.0034115165022882256, -0.0014353674198708546, 0.01529630261698915, 0.006837144444033735, -0.004025128973274981, -0.0037780457796641694, -0.0020304458677952, -0.009886443726530095, 0.025485775953885858, 0.013717903021461626, -0.016212411504798286, 0.003060968257168372, 0.012882361696761694, -0.00728458438662993, 0.014484404967271389, 0.001170202485066006, -0.00935014990855089, 0.0026986533766588184, -0.012870349654240923, -0.01836777181611476, -0.0061061216647265125, 0.00623756105280455, -0.000942745130119776, -0.008422954820486645, 0.010894193011283707, 0.006715172835680074, 0.017687287387242446, 0.006569457200571217, 0.001976591098633502, -0.012359468097330574, 0.006477210140881772, -0.011629073844059918, 0.013100551732591828, 0.028709039011026626, 0.008975687187688156, 0.02318493431150968, 0.011802441281031266, 0.0037945693981384743, 0.0014387693337356744, 0.010849286947652517, 0.0018211244995019204, 0.007073694971549447, -0.005587833260055889, -0.023120765254154258, 0.002072176204955415, -0.007586092647157545, -0.0015880087350150297, 0.01662963176090367, -0.017097841830238273, 0.011214138068729479, -0.0043467225488448774, 0.0227928294946433, 0.013537125323112978, 0.014567158653512534, -0.008887414811578504, 0.003532761912066486, 0.009818131007958421, -0.005647719939877731, -0.0015831522668098437, 0.019556912458939354, 0.0042334920110874445, 0.026740952748169365, 0.023341434936840325, 0.008069025947599897, 0.019565417207885818, 0.012729641294496349, -0.001743676574732216, 0.014567828152176002, 6.222394571216445e-05, 0.021492577884423974, 0.013579238851994918, -0.022056348959309146, 0.0019449320685904201, -0.010317185939725143, 0.012717785605336073, -0.0056867384823770135, 0.009349251176525282, 0.008918762161597852, -0.008381015658214119, 0.007743634339440374, 0.020118146542299032, -0.0011289216154195924, 0.009489679025296347, 0.003024803152909799, 0.02674298948336989, 0.024528944271789206, 0.010358585997900628, 0.0056893558217693836, 0.011089624450024253, 0.009395886465708082, 0.006736946746095318, -0.001347010616613746, 0.019832428482400896, 0.02581799518687657, 0.009916725798137934, -0.01686951406115519, -0.013370220237066365, 0.017254261877449634, -0.005871277103740544, -0.0014158577077451487, 0.015058383970282132, 0.0017445145939563363, 0.0181133235022325, 0.0025900440960700873, 0.00931278684362082, -0.002900298017901452, 0.011729126734748675, -0.010828545458191036, 0.0032343213208859464, 0.01742447028458271, 0.0014542129275489535, 0.011984357620270593, 0.010163475207984945, 0.017804040994771765, 0.010256596910384152, 0.020946244727948687, 0.003693821623263788, 0.009188786751451943, 0.017207818540667223, 0.0006457640149621766, 0.011993413009115455, 0.02388313057943758, 0.014731165540987854, -0.010544009217107925, 0.031730039825505596, -0.0015559010037779037, 0.009612369197764491, 0.017919715443659886, 0.028421994708071184, 0.012420088371647849, 0.005725262460796888, 0.01838248756317851, 0.02902292862044082, 0.002639773065648909, 0.013663916076160368, 0.005863242723723233, 0.01644992876752253, 0.006669012699001253, 0.013123112337028956, 0.013881495131887939, 0.02729440274409045, -0.013106320489085619, 0.02169391912745756, 0.0007552329605817757, -0.008670765083086316, -0.012343724089101248, 0.012014581275031695, -0.019841468005636628, 0.015023115452055875, -0.019569370071193075, -0.0014709749546767128, -0.014653252853333696, -0.01888925055098609, -0.008253513719644992, 0.017306235779014172, 0.0009624058052549993, 0.006268861223913251, 0.01396671678417555, 0.016019776959777902, -0.001827498969582047, 0.01116994860649239, 0.007351736491397716, 0.006615109983040071, -0.021592320246311664, 0.011570366347963037, 0.015142932868738588, -0.0071247005457826295, 0.03750462663154991, -0.0069279712753231425, -0.0025738359775737416, 0.01080544578398133, -0.0006787232273726812, -0.0028856648436446876, 0.02343642433789821, -0.006260402585872002, -0.023517139245148855, -0.000623547074327566, -0.009666244387563104, -0.007518480232910264, 0.000215724943012604, -0.0013629690623975926, 0.023946188796177752, 0.01111474721400443, 0.020809014347699967, -0.002672683017952528, 0.0027914076904388273, -0.023439936894795323, -0.0028930614553420394, 0.01222124164279017, 0.024589264574438528, -0.021738727005652336, 0.0037089998782854614, -0.002717571859120144, -0.004908487548126393, 0.01028006458024872, -0.00808449956350532, -0.004644834314694108, -0.002946884318612363, -0.009974715920321576, -0.004059281532721742, 0.016649792143161674, -0.0064967607883011525, -0.02784948657720885, -0.0015840805734645671, -0.0009812579525132102, -0.012400516583452433, 0.015129327586651689, -0.012881316400783178, -0.012514506614979486, -0.007843574181846846, 0.012687281975349164, -0.006354423171095768, -0.003126027076056298, -0.009971920821267827, 0.0027295727384248716, -0.011466995131607545, 0.010513073199785623, 0.00909655223902436, 0.01141234798362368, 0.0024851395012556758, 0.0016800139544524985, 0.015839023132607065, 0.002941379628504129, 0.016601832261100086, 0.0006787487608363397, 0.024625438253286003, 0.004139303480721249, 0.029105075910826943, 0.017269481350870298, -0.004059038175488577, 0.010995011037607588, 0.0031592853443081267, 0.006555778708689656, -0.007206118135179776, -0.011130617909767071, 0.008054333082569238, 0.008767312649011483, -0.008639289359296896, 0.011147860342812045, -0.0018856947489503282, 0.0035346136780785614, -0.009416822490829048, 0.01624674701928363, 7.880955824362969e-05, 0.0037341634488935586, -0.012170204731755402, -0.008188876953173729, -0.012013159178320227, 0.003683236749648103, 0.0037986439745992134, -0.010792476092023235, 0.004953183080828427, 0.004878989185029958, 0.01424484445308615, 0.00852760037479859, 0.008600137131870937, 0.027460309721191095, -0.00719134757020645, 0.017572998630741687, -0.006102042841649572, 0.003629315943081234, -0.005039374998088374, 0.007623008649072625, 0.0006759258678129164, 0.015103921026814949, -0.00787841170769152, 0.013442693768271646, 0.006756875491286831, 0.026385356269087706, 0.0026865528040487374, 0.022539010025656222, 0.014276850777838844, 0.017929288293946716, 0.013574080814848665, 0.010242577174009984, 0.019878212002520577, 0.00596044030066908, -0.017870741484070325, 0.007434693003704719, 0.013895614310433796, -0.0029111752459672897, 0.00027617386325495125, -0.011492810797245758, 0.011079278607075287, -0.00837858342932988, 0.013203311486344047, 0.015577160407498007, 0.019063030473312505, 0.014994411134088542, 0.018299547535416426, -0.0004181628035392823, 0.022083651929749752, -0.009289292489986667, -0.007013834947598213, 0.024249783446618052, 0.00021760548377684478, -0.008149090242492267, -0.0005283850600822981, 0.005826682665868408, 0.010528839479808583, 0.01331408477700053, -0.005065466306482086, 0.0019485038277760206, 0.01844229822295726, 0.009779866267234927, 0.018705061725927046, 0.0035968456455585758, 0.026814416541904553, 0.01355785029999514, 0.012854522504290944, 0.0017906543440559127, -0.01772160771679428, 0.018747588491138056, 0.00663423008853057, 0.009628703546770917, 0.009280859844993225, 0.02374016258655378, 0.01107219403007819, 0.03332514507598643, 0.025004946779750223, 0.01103561697137391, 0.01123953465969002, 0.047103800414929654, 0.005988966094769047, 0.009486360990205495, 0.005407547917430022, 0.009490802554838381, 0.006355169384579751, 0.02953554727290293, -0.0035062571670434212, -0.006343348402627953, 0.02786437706829738, -0.02597059704106008, 0.003685617574042524, -0.01089844676318886, 0.006984520225824069, -0.004681630639795269, 0.009791151260883825, -0.005342831835043511, 0.0025270227795103095, -0.013621813267895154, -0.003754478536309025, 0.001309554055737558, -0.003997555777110897, 0.006388184785898786, 0.009913584146673609, 0.021895953156737265, -0.016770445598536562, 0.006100417366370983, -0.0004950674031656775, 0.006414737586734491, 0.01943584522239025, 0.024498536378360723, 0.020308786885646142, 0.002746549288073958, -0.011252671242549308, -0.012134496924057618, 0.0051908435393223295, -0.025966542551923356, -0.009371075476866251, -0.01940506813810603, -0.011241080762575515, -0.000624340672369074, 0.01016127398595655, -0.0008414760776858836, 0.0037484930570719182, 0.007970811703093236, -0.008783131885891436, 0.0185176270380677, -0.0012958150139465857, 0.005155814540035042, 0.0046925288795307525, 0.0005491192353793774, -0.0013645378694348979, 0.0033190728343318095, -0.0005072215787423511, 0.005294126241066054, -0.007716577407663424, -0.007329085387934471, 0.0044388036579219225, 0.0008061657719098509, 0.0032755803830517623, 0.00060836303465997, -0.0043386506511321355, -0.009391216841824243, 0.008166147431696021, 0.01872725879631477, 0.0036681965294341552, 0.0010128703566858006, -0.014310242225800263, 0.002004099465295506, -0.018692606690836555, 0.005990949657977577, 0.0007507721743257405, -0.004001389501690683, 0.012683768373906234, 0.0014911284582345727, -0.016831948116577428, 0.0023052117881043467, 0.011257575650649753, 0.012346145201671882, -0.011393089621124142, 0.004185702028727909, 0.0027727555453544374, 0.0060151920266807955, -3.244792089342531e-05, 0.00818185449880356, 0.021450864916524447, 0.002116733711616165, -0.009653339153404992, -0.009565598066317191, 0.008685235760661627, 0.013146541551638795, 0.0023304507642636185, 0.0032920568518463424, 0.0030264483310137444, 0.033004912687266394, -0.00018783675147381426, 0.01636173574975133, 0.011614857077186196, 0.020005035581569186, 0.008351534615092623, 0.024331869552451358, 0.005232846418256875, -0.00604836911637334, 0.0030761846835671196, -0.007337518842479604, 0.012368667353881395, 0.0046804756045293675, -0.015767529709475397, 0.01510722445678381, 0.008423460541349218, -0.01253827331170572, 0.005652400712071005, 0.012033210668105882, -0.001634442503923417, -0.0004887473547926479, -0.00036757362783434804, -0.004501954227314515, 0.0240867703962105, -0.0023183745932965115, 0.012063752720892513, 0.015197379916260072, 0.01357195060001541, -0.012907088463983191, 0.023056791674357105, 0.0035179840156502116, 0.028090841200994893, 0.009854622157709329, -0.0023286682878685266, 0.016622028271162378, 0.0084558052541238, 0.00989832652363736, 0.014231660451559013, 0.0007016604334917075, -0.008303778230366507, 0.003517518433527048, 0.01960708857145913, 0.0012602742901147218, 0.0005877408665976239, 0.02773900182600346, 0.01811868268846767, 0.011300595200918988, 0.029345908310585693, 0.003580472367192799, 0.015617739663665026, -0.0084410251581164, 0.009162836028020744, 0.01839606139129655, -0.00020557127706512468, -0.012783634503631387, 0.009272235231818617, 0.005496603586872284, 0.004684320041002832, -0.007968612630815957, 0.01722022078272051, -0.0005327150095985391, 0.0175866534957892, 0.006395832114588851, -0.000327190444211849, 0.005699065803398465, 0.006912940047944405, 0.012547045701232712, -0.0020648582851614077, 0.006852170771475474, -0.0045176323704153205, 0.006812132782690664, -0.014672751267348289, -0.003947651286309484, 0.02047882080215385, -0.009325564757793383, -0.010578119230878208, -0.0027736973659326356, -0.013216418211851088, 0.00454255933880463, 0.0022274858929057176, -0.00011992379207566977, 0.023679770356016462, 0.023773598838053675, 0.008449670908825148, -0.006020321214772317, 0.018769697214850393, 0.021482854168664994, -0.0025316854527358736, 0.0057925367537119046, 0.014660612193875927, 0.0212210410405818, 0.015048703776466653, 0.013206970907679928, 0.005349769146128463, 0.0049512383845016, 0.021831316273959813, 0.016784601115297896, 0.012750834987897561, 0.013438110732240438, 0.013148122698392028, 0.009312026358758796, 0.0176296196366292, 0.016870713375649136, 0.015614262526267767, 0.028937042349117127, -0.0124958266996195, 0.020927539691262736, -0.00041719838314658675, 0.006280689625810479, 0.003810653815985899, 0.013819575395587641, -0.008012652277233107, 0.011198323501709207, -0.014879173390182491, 0.012703447720632905, -0.007195375906218382, 0.02519802949230126, -0.004637465929080017, 0.002831603658164726, -0.0030748257012594453, 0.005539439504001428, 0.0018889370685194423, -0.006856416749317899, -0.007821000072701952, 0.0027603630312442833, 0.005064347220030081, -0.007398459916471413, 0.004297994301671305, -0.002945805927068401, 0.001874971168235146, 0.01743026727846034, 0.002308894038568412, -0.01142429144403363, 0.013695493350804352, -0.009489508292447688, 0.0007120488097562483, 0.025842929813466448, -0.007402858463484769, -0.01747176977533468, 0.011504777473883983, -0.00926909874403214, -0.0006010449731152619, -0.004204087570718084, 0.010248352876004794, -0.008402221989244282, -0.004695438084911814, -0.003913902191634051, 0.01629325140655551, 0.004674056402838151, 0.006919513964873803, 0.0117150374306283, -0.005868990877381172, -0.00903053731797472, 0.01950669211789337, -0.005554540032185462, -0.004800183324007017, -0.0022063544210462133, -0.01665148722983498, -0.01943353572305527, 0.008788788725762539, 0.01812999281904538, -0.00681891068054187, 0.020194427577298234, -0.0035380615602323964, 0.0011786141723328849, 0.016096580450027615, -0.005027727772260682, 0.004896053352250486, 0.008895155600853327, 0.01208227109323681, -0.016349420239261933, 0.022758543016107854, 0.014586991389828476, 0.005810298360869684, 0.013861720490601087, 0.0004019601662207542, -0.010738888914644664, -0.00023761819053225532, -0.016892031773362293, -0.014890107953860768, -0.004486847270392882, 0.021322463920959423, -0.007206645896979683, 0.021982603983242355, -0.008218355484462196, -0.03426538925913905, 0.0021016048006450606, 0.0016169719884900435, 0.017372557767042343, -0.0066228041495936425, 0.004146503145018545, -0.0077612004052208345, 0.007505032224271939, 0.007091941425056245, -0.0037736978623910946, 0.020101220002203136, 0.010650758387826972, -0.0052683971525493934, 0.020536676469862722, -0.0034922860167813795, 0.0035328027068101285, -0.0004127454730615688, -0.008487446061284796, 0.010357824819342294, 0.01964001469862263, 0.00675998282867187, 0.010910180897096427, 0.004301928185628674, 0.022392387208388227, 0.009243503575797842, 0.01685823253952782, -0.002335698850091842, -0.004398483064853087, 0.015730186308149565, 0.01527837361132788, -0.005032817068422234, 0.005484624048639686, 0.0071982927850984015, 0.009821935253850462, 0.0030562369921999983, -0.006067169903786885, 0.0017974959735961844, 0.011416750724536967, 0.011998260500624101, 0.005820988404028167, 0.025404286185459816, -0.008322480514007101, 0.003843240709825476, 0.006662630762043004, 0.00654171585492305, 0.010895551082449143, -0.004298994105273586, -0.003720481669186211, -0.007857141402800156, 0.010694390805599502, -0.00022800205553268388, 0.009274478269689407, 0.017364807766735706, 0.0164475603446802, -0.008048773324927221, 0.00786070199806498, 0.018918201671204376, 0.015713565850445692, 0.0064672357300634515, 0.0016803839982581672, 0.036016599612418015, 0.01369366009026172, 0.013599724685478487, -0.003412573151989459, -0.013260326751180329, 0.005213556579714956, 0.01037775401187965, -0.002805489573176749, 0.009906279232350646, -0.0007661367645263873, -0.016555699867202643, 0.02110190647852695, -0.022479478552292202, 0.005447602897002166, -0.00708700519609821, -0.022981070200108533, -0.012004299070163725, 0.012854609638662614, -0.018059358700252985, -0.012246464361565653, 0.013998192493602651, -0.01659444387457204, -0.0027071735493498566, -0.01882294484679586, -0.002159418268860574, -0.00820854244872795, 4.605015889098854e-05, -0.011250806022076284, 0.003640423414934093, -0.017419626612854476, 0.008435779853982726, -0.014229898998078323, -0.015805020448831995, 0.0028800195103419603, -0.000991622708073094, -0.0035465230759774446, 0.001597775015742762, 0.020060279157817492, 0.0044860855842650295, 0.0003578801925832943, 0.02586918075814842, 0.017724751964857517, 0.010973696903616019, -0.003344109183456802, 0.020628625706751887, 0.008131321744557874, 0.003013713839891973, 0.004427465054773074, -0.0014526933288641494, 0.0267831767872056, 0.00848706196807492, 0.024405827621626564, 0.0003138724653483692, 0.020708294035027906, -0.02386802649089464, -0.006566367565968849, -0.025886429145780404, 0.0020168272755124983, 0.0009537090007587504, 0.00495170039938437, -0.01541180406080984, -0.007071498488102956, -0.005456817396661874, 0.0006875702898829826, 0.00815980315140804, -0.007791724808140092, 0.0032732767819069856, 0.0011960442976029161, 0.004881537088668374, -0.013897543440789398, -0.011313121746397594, -0.006565312926746207, -0.019359339141815816, -0.011897525270312665, -0.011749402298627662, -0.0017939604606497643, -0.008307244517425667, 0.008511093313676086, -0.010793501099910714, 0.011234255221772045, -0.0009979535495047013, -0.007947554272146475, -0.0153843096512547, 0.008294369316697846, 0.00615170410973223, -0.0036039393919165986, 0.005317571252819621, 0.01369983344818441, -0.008243460345998597, 0.00459823099534612, -0.003937820906280744, 0.0009537609844884761, -0.015564155562943329, -0.001118824884068901, 0.004533201645079103, 0.0054860105531129135, -0.003368699783558318, 0.004625414555168537, 0.022775365664465277, 0.0018908584149434876, 0.0142434020959631, 0.005275986751947137, -0.015905160686610617, 0.005733365085180656, 0.0036673081764707722, -0.01739746884949079, 0.02726132266879709, -0.002244328858349566, -0.009744021620288658, 0.008503663332275879, 0.007142616536332536, 0.011687871540031073, 0.014698135909090583, 0.022627678723842644, 0.011474062704115632, 0.01597757797131576, 0.01512075893717522, 0.0017605889190774392, 0.011306887097561337, 0.010950111177562628, -0.0033694941838406036, 0.004115220818842046, 0.0028400512508712553, -0.008927338069693064, -0.006602573829815559, -0.013956775566861214, 0.011100141157016085, -0.003031383958196142, 0.004213599754256657, 0.003016272143202849, -0.007800205001537592, -0.0013875854990534125, 0.001488935352822786, 0.011609831612805491, -0.019172550751431153, -0.013267678744526737, 0.010206685355549116, -0.012234191983719287, -0.010834913404693202, 0.00757508059176676, 